digraph Tree {
node [shape=box, style="rounded", color="black", fontname="helvetica"] ;
edge [fontname="helvetica"] ;
0 [label="carat <= 1.0\nsquared_error = 15973755.1\nsamples = 25588\nvalue = 3925.2"] ;
1 [label="y <= 5.5\nsquared_error = 1249260.5\nsamples = 16518\nvalue = 1623.7"] ;
0 -> 1 [labeldistance=2.5, labelangle=45, headlabel="True"] ;
2 [label="y <= 5.0\nsquared_error = 267895.0\nsamples = 11830\nvalue = 1050.7"] ;
1 -> 2 ;
3 [label="x <= 4.6\nsquared_error = 57235.0\nsamples = 8367\nvalue = 786.0"] ;
2 -> 3 ;
4 [label="clarity <= 8.5\nsquared_error = 34803.5\nsamples = 5702\nvalue = 698.5"] ;
3 -> 4 ;
5 [label="x <= 4.3\nsquared_error = 25707.7\nsamples = 4413\nvalue = 655.3"] ;
4 -> 5 ;
6 [label="clarity <= 7.5\nsquared_error = 12077.9\nsamples = 855\nvalue = 531.1"] ;
5 -> 6 ;
7 [label="x <= 4.2\nsquared_error = 10971.4\nsamples = 545\nvalue = 503.5"] ;
6 -> 7 ;
8 [label="carat <= 0.2\nsquared_error = 4792.2\nsamples = 256\nvalue = 450.5"] ;
7 -> 8 ;
9 [label="cut <= 4.5\nsquared_error = 3348.5\nsamples = 85\nvalue = 412.8"] ;
8 -> 9 ;
10 [label="x <= 3.9\nsquared_error = 1313.8\nsamples = 67\nvalue = 397.4"] ;
9 -> 10 ;
11 [label="Unnamed: 0 <= 36601.0\nsquared_error = 194.2\nsamples = 16\nvalue = 368.6"] ;
10 -> 11 ;
12 [label="Unnamed: 0 <= 28268.5\nsquared_error = 62.4\nsamples = 12\nvalue = 361.9"] ;
11 -> 12 ;
13 [label="carat <= 0.2\nsquared_error = 37.8\nsamples = 4\nvalue = 350.6"] ;
12 -> 13 ;
14 [label="color <= 5.5\nsquared_error = 2.2\nsamples = 2\nvalue = 343.5"] ;
13 -> 14 ;
15 [label="squared_error = 0.0\nsamples = 1\nvalue = 342.0"] ;
14 -> 15 ;
16 [label="squared_error = 0.0\nsamples = 1\nvalue = 345.0"] ;
14 -> 16 ;
17 [label="Unnamed: 0 <= 14143.0\nsquared_error = 5.6\nsamples = 2\nvalue = 355.3"] ;
13 -> 17 ;
18 [label="squared_error = 0.0\nsamples = 1\nvalue = 352.0"] ;
17 -> 18 ;
19 [label="squared_error = 0.0\nsamples = 1\nvalue = 357.0"] ;
17 -> 19 ;
20 [label="x <= 3.8\nsquared_error = 8.7\nsamples = 8\nvalue = 366.0"] ;
12 -> 20 ;
21 [label="Unnamed: 0 <= 33264.5\nsquared_error = 3.2\nsamples = 6\nvalue = 367.6"] ;
20 -> 21 ;
22 [label="squared_error = 0.0\nsamples = 5\nvalue = 367.0"] ;
21 -> 22 ;
23 [label="squared_error = 0.0\nsamples = 1\nvalue = 373.0"] ;
21 -> 23 ;
24 [label="squared_error = 0.0\nsamples = 2\nvalue = 362.0"] ;
20 -> 24 ;
25 [label="x <= 3.8\nsquared_error = 34.6\nsamples = 4\nvalue = 389.5"] ;
11 -> 25 ;
26 [label="squared_error = 0.0\nsamples = 1\nvalue = 402.0"] ;
25 -> 26 ;
27 [label="depth <= 61.7\nsquared_error = 4.0\nsamples = 3\nvalue = 387.0"] ;
25 -> 27 ;
28 [label="squared_error = 0.0\nsamples = 2\nvalue = 386.0"] ;
27 -> 28 ;
29 [label="squared_error = 0.0\nsamples = 1\nvalue = 391.0"] ;
27 -> 29 ;
30 [label="Unnamed: 0 <= 30.5\nsquared_error = 1326.0\nsamples = 51\nvalue = 405.9"] ;
10 -> 30 ;
31 [label="cut <= 2.5\nsquared_error = 179.8\nsamples = 3\nvalue = 343.4"] ;
30 -> 31 ;
32 [label="squared_error = 0.0\nsamples = 1\nvalue = 327.0"] ;
31 -> 32 ;
33 [label="carat <= 0.2\nsquared_error = 0.9\nsamples = 2\nvalue = 354.3"] ;
31 -> 33 ;
34 [label="squared_error = 0.0\nsamples = 1\nvalue = 353.0"] ;
33 -> 34 ;
35 [label="squared_error = 0.0\nsamples = 1\nvalue = 355.0"] ;
33 -> 35 ;
36 [label="depth <= 61.1\nsquared_error = 1138.0\nsamples = 48\nvalue = 409.8"] ;
30 -> 36 ;
37 [label="color <= 4.0\nsquared_error = 389.4\nsamples = 16\nvalue = 393.1"] ;
36 -> 37 ;
38 [label="squared_error = 0.0\nsamples = 1\nvalue = 434.0"] ;
37 -> 38 ;
39 [label="Unnamed: 0 <= 20819.0\nsquared_error = 289.1\nsamples = 15\nvalue = 390.2"] ;
37 -> 39 ;
40 [label="z <= 2.4\nsquared_error = 69.4\nsamples = 4\nvalue = 412.2"] ;
39 -> 40 ;
41 [label="squared_error = 0.0\nsamples = 2\nvalue = 402.0"] ;
40 -> 41 ;
42 [label="squared_error = 0.0\nsamples = 2\nvalue = 419.0"] ;
40 -> 42 ;
43 [label="Unnamed: 0 <= 36611.5\nsquared_error = 208.6\nsamples = 11\nvalue = 385.4"] ;
39 -> 43 ;
44 [label="table <= 58.5\nsquared_error = 40.7\nsamples = 5\nvalue = 371.8"] ;
43 -> 44 ;
45 [label="squared_error = 0.0\nsamples = 1\nvalue = 362.0"] ;
44 -> 45 ;
46 [label="y <= 4.0\nsquared_error = 6.2\nsamples = 4\nvalue = 375.5"] ;
44 -> 46 ;
47 [label="squared_error = 0.0\nsamples = 1\nvalue = 378.0"] ;
46 -> 47 ;
48 [label="squared_error = 0.0\nsamples = 3\nvalue = 373.0"] ;
46 -> 48 ;
49 [label="Unnamed: 0 <= 46117.5\nsquared_error = 38.8\nsamples = 6\nvalue = 397.8"] ;
43 -> 49 ;
50 [label="table <= 59.5\nsquared_error = 12.2\nsamples = 2\nvalue = 389.5"] ;
49 -> 50 ;
51 [label="squared_error = 0.0\nsamples = 1\nvalue = 393.0"] ;
50 -> 51 ;
52 [label="squared_error = 0.0\nsamples = 1\nvalue = 386.0"] ;
50 -> 52 ;
53 [label="squared_error = 0.0\nsamples = 4\nvalue = 402.0"] ;
49 -> 53 ;
54 [label="x <= 4.0\nsquared_error = 1318.7\nsamples = 32\nvalue = 419.9"] ;
36 -> 54 ;
55 [label="y <= 3.9\nsquared_error = 1026.1\nsamples = 30\nvalue = 415.6"] ;
54 -> 55 ;
56 [label="Unnamed: 0 <= 29271.0\nsquared_error = 2686.6\nsamples = 6\nvalue = 445.7"] ;
55 -> 56 ;
57 [label="Unnamed: 0 <= 14159.5\nsquared_error = 552.2\nsamples = 2\nvalue = 380.5"] ;
56 -> 57 ;
58 [label="squared_error = 0.0\nsamples = 1\nvalue = 404.0"] ;
57 -> 58 ;
59 [label="squared_error = 0.0\nsamples = 1\nvalue = 357.0"] ;
57 -> 59 ;
60 [label="y <= 3.9\nsquared_error = 568.7\nsamples = 4\nvalue = 478.2"] ;
56 -> 60 ;
61 [label="x <= 3.9\nsquared_error = 221.6\nsamples = 3\nvalue = 466.7"] ;
60 -> 61 ;
62 [label="Unnamed: 0 <= 35944.5\nsquared_error = 42.2\nsamples = 2\nvalue = 476.5"] ;
61 -> 62 ;
63 [label="squared_error = 0.0\nsamples = 1\nvalue = 470.0"] ;
62 -> 63 ;
64 [label="squared_error = 0.0\nsamples = 1\nvalue = 483.0"] ;
62 -> 64 ;
65 [label="squared_error = 0.0\nsamples = 1\nvalue = 447.0"] ;
61 -> 65 ;
66 [label="squared_error = 0.0\nsamples = 1\nvalue = 513.0"] ;
60 -> 66 ;
67 [label="y <= 4.0\nsquared_error = 631.8\nsamples = 24\nvalue = 411.2"] ;
55 -> 67 ;
68 [label="Unnamed: 0 <= 42771.0\nsquared_error = 203.0\nsamples = 4\nvalue = 373.6"] ;
67 -> 68 ;
69 [label="depth <= 61.9\nsquared_error = 36.0\nsamples = 3\nvalue = 367.0"] ;
68 -> 69 ;
70 [label="squared_error = 0.0\nsamples = 1\nvalue = 357.0"] ;
69 -> 70 ;
71 [label="clarity <= 6.5\nsquared_error = 3.6\nsamples = 2\nvalue = 370.3"] ;
69 -> 71 ;
72 [label="squared_error = 0.0\nsamples = 1\nvalue = 369.0"] ;
71 -> 72 ;
73 [label="squared_error = 0.0\nsamples = 1\nvalue = 373.0"] ;
71 -> 73 ;
74 [label="squared_error = 0.0\nsamples = 1\nvalue = 400.0"] ;
68 -> 74 ;
75 [label="Unnamed: 0 <= 37940.0\nsquared_error = 467.2\nsamples = 20\nvalue = 416.5"] ;
67 -> 75 ;
76 [label="Unnamed: 0 <= 32286.5\nsquared_error = 464.8\nsamples = 13\nvalue = 427.2"] ;
75 -> 76 ;
77 [label="Unnamed: 0 <= 29775.5\nsquared_error = 127.1\nsamples = 10\nvalue = 416.8"] ;
76 -> 77 ;
78 [label="Unnamed: 0 <= 20653.0\nsquared_error = 7.5\nsamples = 9\nvalue = 419.6"] ;
77 -> 78 ;
79 [label="z <= 2.5\nsquared_error = 0.2\nsamples = 8\nvalue = 418.9"] ;
78 -> 79 ;
80 [label="squared_error = 0.0\nsamples = 1\nvalue = 417.0"] ;
79 -> 80 ;
81 [label="squared_error = 0.0\nsamples = 7\nvalue = 419.0"] ;
79 -> 81 ;
82 [label="squared_error = 0.0\nsamples = 1\nvalue = 430.0"] ;
78 -> 82 ;
83 [label="squared_error = 0.0\nsamples = 1\nvalue = 373.0"] ;
77 -> 83 ;
84 [label="Unnamed: 0 <= 33618.5\nsquared_error = 7.8\nsamples = 3\nvalue = 462.4"] ;
76 -> 84 ;
85 [label="squared_error = 0.0\nsamples = 2\nvalue = 461.0"] ;
84 -> 85 ;
86 [label="squared_error = 0.0\nsamples = 1\nvalue = 468.0"] ;
84 -> 86 ;
87 [label="carat <= 0.2\nsquared_error = 7.5\nsamples = 7\nvalue = 399.6"] ;
75 -> 87 ;
88 [label="squared_error = 0.0\nsamples = 4\nvalue = 402.0"] ;
87 -> 88 ;
89 [label="y <= 4.0\nsquared_error = 3.9\nsamples = 3\nvalue = 397.3"] ;
87 -> 89 ;
90 [label="squared_error = 0.0\nsamples = 1\nvalue = 393.0"] ;
89 -> 90 ;
91 [label="z <= 2.5\nsquared_error = 1.0\nsamples = 2\nvalue = 398.0"] ;
89 -> 91 ;
92 [label="squared_error = 0.0\nsamples = 1\nvalue = 397.0"] ;
91 -> 92 ;
93 [label="squared_error = 0.0\nsamples = 1\nvalue = 399.0"] ;
91 -> 93 ;
94 [label="table <= 56.0\nsquared_error = 1250.0\nsamples = 2\nvalue = 486.0"] ;
54 -> 94 ;
95 [label="squared_error = 0.0\nsamples = 1\nvalue = 461.0"] ;
94 -> 95 ;
96 [label="squared_error = 0.0\nsamples = 1\nvalue = 536.0"] ;
94 -> 96 ;
97 [label="color <= 4.5\nsquared_error = 6764.6\nsamples = 18\nvalue = 475.3"] ;
9 -> 97 ;
98 [label="clarity <= 6.5\nsquared_error = 815.2\nsamples = 6\nvalue = 408.5"] ;
97 -> 98 ;
99 [label="color <= 3.5\nsquared_error = 182.2\nsamples = 2\nvalue = 377.5"] ;
98 -> 99 ;
100 [label="squared_error = 0.0\nsamples = 1\nvalue = 391.0"] ;
99 -> 100 ;
101 [label="squared_error = 0.0\nsamples = 1\nvalue = 364.0"] ;
99 -> 101 ;
102 [label="x <= 3.9\nsquared_error = 169.5\nsamples = 4\nvalue = 429.2"] ;
98 -> 102 ;
103 [label="squared_error = 0.0\nsamples = 1\nvalue = 404.0"] ;
102 -> 103 ;
104 [label="color <= 3.5\nsquared_error = 51.4\nsamples = 3\nvalue = 434.2"] ;
102 -> 104 ;
105 [label="table <= 55.5\nsquared_error = 18.0\nsamples = 2\nvalue = 429.0"] ;
104 -> 105 ;
106 [label="squared_error = 0.0\nsamples = 1\nvalue = 423.0"] ;
105 -> 106 ;
107 [label="squared_error = 0.0\nsamples = 1\nvalue = 432.0"] ;
105 -> 107 ;
108 [label="squared_error = 0.0\nsamples = 1\nvalue = 442.0"] ;
104 -> 108 ;
109 [label="clarity <= 6.5\nsquared_error = 6091.2\nsamples = 12\nvalue = 514.6"] ;
97 -> 109 ;
110 [label="Unnamed: 0 <= 35934.0\nsquared_error = 4623.3\nsamples = 6\nvalue = 468.8"] ;
109 -> 110 ;
111 [label="carat <= 0.2\nsquared_error = 420.2\nsamples = 2\nvalue = 346.5"] ;
110 -> 111 ;
112 [label="squared_error = 0.0\nsamples = 1\nvalue = 367.0"] ;
111 -> 112 ;
113 [label="squared_error = 0.0\nsamples = 1\nvalue = 326.0"] ;
111 -> 113 ;
114 [label="table <= 54.5\nsquared_error = 331.6\nsamples = 4\nvalue = 503.7"] ;
110 -> 114 ;
115 [label="squared_error = 0.0\nsamples = 1\nvalue = 548.0"] ;
114 -> 115 ;
116 [label="y <= 4.0\nsquared_error = 5.6\nsamples = 3\nvalue = 496.3"] ;
114 -> 116 ;
117 [label="squared_error = 0.0\nsamples = 1\nvalue = 493.0"] ;
116 -> 117 ;
118 [label="squared_error = 0.0\nsamples = 2\nvalue = 498.0"] ;
116 -> 118 ;
119 [label="table <= 56.5\nsquared_error = 2712.7\nsamples = 6\nvalue = 566.2"] ;
109 -> 119 ;
120 [label="x <= 4.0\nsquared_error = 719.7\nsamples = 5\nvalue = 549.0"] ;
119 -> 120 ;
121 [label="squared_error = 0.0\nsamples = 1\nvalue = 493.0"] ;
120 -> 121 ;
122 [label="depth <= 61.5\nsquared_error = 229.9\nsamples = 4\nvalue = 558.3"] ;
120 -> 122 ;
123 [label="squared_error = 0.0\nsamples = 2\nvalue = 548.0"] ;
122 -> 123 ;
124 [label="y <= 4.0\nsquared_error = 49.0\nsamples = 2\nvalue = 579.0"] ;
122 -> 124 ;
125 [label="squared_error = 0.0\nsamples = 1\nvalue = 586.0"] ;
124 -> 125 ;
126 [label="squared_error = 0.0\nsamples = 1\nvalue = 572.0"] ;
124 -> 126 ;
127 [label="squared_error = 0.0\nsamples = 1\nvalue = 687.0"] ;
119 -> 127 ;
128 [label="Unnamed: 0 <= 27930.5\nsquared_error = 4455.3\nsamples = 171\nvalue = 469.1"] ;
8 -> 128 ;
129 [label="cut <= 3.5\nsquared_error = 8092.9\nsamples = 42\nvalue = 521.0"] ;
128 -> 129 ;
130 [label="Unnamed: 0 <= 27308.0\nsquared_error = 8060.6\nsamples = 20\nvalue = 483.3"] ;
129 -> 130 ;
131 [label="carat <= 0.3\nsquared_error = 6587.0\nsamples = 19\nvalue = 472.7"] ;
130 -> 131 ;
132 [label="depth <= 63.4\nsquared_error = 4078.1\nsamples = 15\nvalue = 447.2"] ;
131 -> 132 ;
133 [label="y <= 4.2\nsquared_error = 2730.5\nsamples = 14\nvalue = 432.0"] ;
132 -> 133 ;
134 [label="Unnamed: 0 <= 11545.0\nsquared_error = 1615.9\nsamples = 13\nvalue = 424.5"] ;
133 -> 134 ;
135 [label="Unnamed: 0 <= 6708.0\nsquared_error = 25.5\nsamples = 8\nvalue = 411.1"] ;
134 -> 135 ;
136 [label="depth <= 62.7\nsquared_error = 6.2\nsamples = 4\nvalue = 406.3"] ;
135 -> 136 ;
137 [label="y <= 4.2\nsquared_error = 1.6\nsamples = 3\nvalue = 408.7"] ;
136 -> 137 ;
138 [label="Unnamed: 0 <= 6703.0\nsquared_error = 0.2\nsamples = 2\nvalue = 409.5"] ;
137 -> 138 ;
139 [label="squared_error = 0.0\nsamples = 1\nvalue = 409.0"] ;
138 -> 139 ;
140 [label="squared_error = 0.0\nsamples = 1\nvalue = 410.0"] ;
138 -> 140 ;
141 [label="squared_error = 0.0\nsamples = 1\nvalue = 407.0"] ;
137 -> 141 ;
142 [label="squared_error = 0.0\nsamples = 1\nvalue = 404.0"] ;
136 -> 142 ;
143 [label="table <= 57.0\nsquared_error = 6.1\nsamples = 4\nvalue = 415.1"] ;
135 -> 143 ;
144 [label="squared_error = 0.0\nsamples = 2\nvalue = 418.0"] ;
143 -> 144 ;
145 [label="squared_error = 0.0\nsamples = 2\nvalue = 413.0"] ;
143 -> 145 ;
146 [label="y <= 4.1\nsquared_error = 3429.0\nsamples = 5\nvalue = 446.4"] ;
134 -> 146 ;
147 [label="squared_error = 0.0\nsamples = 1\nvalue = 601.0"] ;
146 -> 147 ;
148 [label="table <= 59.5\nsquared_error = 15.3\nsamples = 4\nvalue = 424.3"] ;
146 -> 148 ;
149 [label="z <= 2.6\nsquared_error = 2.8\nsamples = 3\nvalue = 427.5"] ;
148 -> 149 ;
150 [label="x <= 4.2\nsquared_error = 1.0\nsamples = 2\nvalue = 426.0"] ;
149 -> 150 ;
151 [label="squared_error = 0.0\nsamples = 1\nvalue = 425.0"] ;
150 -> 151 ;
152 [label="squared_error = 0.0\nsamples = 1\nvalue = 427.0"] ;
150 -> 152 ;
153 [label="squared_error = 0.0\nsamples = 1\nvalue = 429.0"] ;
149 -> 153 ;
154 [label="squared_error = 0.0\nsamples = 1\nvalue = 420.0"] ;
148 -> 154 ;
155 [label="squared_error = 0.0\nsamples = 1\nvalue = 590.0"] ;
133 -> 155 ;
156 [label="squared_error = 0.0\nsamples = 1\nvalue = 558.0"] ;
132 -> 156 ;
157 [label="color <= 3.5\nsquared_error = 6020.8\nsamples = 4\nvalue = 552.5"] ;
131 -> 157 ;
158 [label="squared_error = 0.0\nsamples = 1\nvalue = 421.0"] ;
157 -> 158 ;
159 [label="Unnamed: 0 <= 6907.5\nsquared_error = 342.2\nsamples = 3\nvalue = 596.3"] ;
157 -> 159 ;
160 [label="squared_error = 0.0\nsamples = 1\nvalue = 555.0"] ;
159 -> 160 ;
161 [label="color <= 4.5\nsquared_error = 0.6\nsamples = 2\nvalue = 604.6"] ;
159 -> 161 ;
162 [label="squared_error = 0.0\nsamples = 1\nvalue = 605.0"] ;
161 -> 162 ;
163 [label="squared_error = 0.0\nsamples = 1\nvalue = 603.0"] ;
161 -> 163 ;
164 [label="squared_error = 0.0\nsamples = 1\nvalue = 658.0"] ;
130 -> 164 ;
165 [label="color <= 4.5\nsquared_error = 4710.4\nsamples = 22\nvalue = 563.6"] ;
129 -> 165 ;
166 [label="z <= 2.6\nsquared_error = 1326.5\nsamples = 4\nvalue = 396.0"] ;
165 -> 166 ;
167 [label="y <= 4.1\nsquared_error = 60.2\nsamples = 3\nvalue = 416.7"] ;
166 -> 167 ;
168 [label="squared_error = 0.0\nsamples = 1\nvalue = 407.0"] ;
167 -> 168 ;
169 [label="color <= 2.5\nsquared_error = 20.2\nsamples = 2\nvalue = 421.5"] ;
167 -> 169 ;
170 [label="squared_error = 0.0\nsamples = 1\nvalue = 417.0"] ;
169 -> 170 ;
171 [label="squared_error = 0.0\nsamples = 1\nvalue = 426.0"] ;
169 -> 171 ;
172 [label="squared_error = 0.0\nsamples = 1\nvalue = 334.0"] ;
166 -> 172 ;
173 [label="Unnamed: 0 <= 9553.5\nsquared_error = 434.9\nsamples = 18\nvalue = 588.4"] ;
165 -> 173 ;
174 [label="Unnamed: 0 <= 3892.0\nsquared_error = 142.7\nsamples = 10\nvalue = 569.5"] ;
173 -> 174 ;
175 [label="Unnamed: 0 <= 889.0\nsquared_error = 0.9\nsamples = 4\nvalue = 556.7"] ;
174 -> 175 ;
176 [label="squared_error = 0.0\nsamples = 2\nvalue = 556.0"] ;
175 -> 176 ;
177 [label="squared_error = 0.0\nsamples = 2\nvalue = 558.0"] ;
175 -> 177 ;
178 [label="table <= 54.5\nsquared_error = 3.7\nsamples = 6\nvalue = 580.4"] ;
174 -> 178 ;
179 [label="squared_error = 0.0\nsamples = 2\nvalue = 583.0"] ;
178 -> 179 ;
180 [label="y <= 4.1\nsquared_error = 1.4\nsamples = 4\nvalue = 579.4"] ;
178 -> 180 ;
181 [label="squared_error = 0.0\nsamples = 3\nvalue = 580.0"] ;
180 -> 181 ;
182 [label="squared_error = 0.0\nsamples = 1\nvalue = 577.0"] ;
180 -> 182 ;
183 [label="Unnamed: 0 <= 16058.5\nsquared_error = 63.4\nsamples = 8\nvalue = 606.0"] ;
173 -> 183 ;
184 [label="Unnamed: 0 <= 13059.0\nsquared_error = 8.2\nsamples = 6\nvalue = 601.2"] ;
183 -> 184 ;
185 [label="Unnamed: 0 <= 11717.0\nsquared_error = 2.0\nsamples = 2\nvalue = 597.0"] ;
184 -> 185 ;
186 [label="squared_error = 0.0\nsamples = 1\nvalue = 595.0"] ;
185 -> 186 ;
187 [label="squared_error = 0.0\nsamples = 1\nvalue = 598.0"] ;
185 -> 187 ;
188 [label="squared_error = 0.0\nsamples = 4\nvalue = 603.0"] ;
184 -> 188 ;
189 [label="squared_error = 0.0\nsamples = 2\nvalue = 618.0"] ;
183 -> 189 ;
190 [label="clarity <= 5.5\nsquared_error = 2213.0\nsamples = 129\nvalue = 452.9"] ;
128 -> 190 ;
191 [label="z <= 2.5\nsquared_error = 1257.5\nsamples = 18\nvalue = 406.5"] ;
190 -> 191 ;
192 [label="x <= 4.1\nsquared_error = 387.2\nsamples = 3\nvalue = 452.0"] ;
191 -> 192 ;
193 [label="color <= 6.0\nsquared_error = 107.6\nsamples = 2\nvalue = 437.3"] ;
192 -> 193 ;
194 [label="squared_error = 0.0\nsamples = 1\nvalue = 430.0"] ;
193 -> 194 ;
195 [label="squared_error = 0.0\nsamples = 1\nvalue = 452.0"] ;
193 -> 195 ;
196 [label="squared_error = 0.0\nsamples = 1\nvalue = 474.0"] ;
192 -> 196 ;
197 [label="z <= 2.7\nsquared_error = 917.2\nsamples = 15\nvalue = 397.0"] ;
191 -> 197 ;
198 [label="Unnamed: 0 <= 32602.0\nsquared_error = 464.5\nsamples = 12\nvalue = 390.4"] ;
197 -> 198 ;
199 [label="y <= 4.1\nsquared_error = 1800.0\nsamples = 2\nvalue = 417.0"] ;
198 -> 199 ;
200 [label="squared_error = 0.0\nsamples = 1\nvalue = 357.0"] ;
199 -> 200 ;
201 [label="squared_error = 0.0\nsamples = 1\nvalue = 447.0"] ;
199 -> 201 ;
202 [label="Unnamed: 0 <= 41127.0\nsquared_error = 82.0\nsamples = 10\nvalue = 385.7"] ;
198 -> 202 ;
203 [label="Unnamed: 0 <= 36597.5\nsquared_error = 17.0\nsamples = 5\nvalue = 379.6"] ;
202 -> 203 ;
204 [label="color <= 5.0\nsquared_error = 3.8\nsamples = 2\nvalue = 375.4"] ;
203 -> 204 ;
205 [label="squared_error = 0.0\nsamples = 1\nvalue = 377.0"] ;
204 -> 205 ;
206 [label="squared_error = 0.0\nsamples = 1\nvalue = 373.0"] ;
204 -> 206 ;
207 [label="z <= 2.6\nsquared_error = 0.5\nsamples = 3\nvalue = 383.2"] ;
203 -> 207 ;
208 [label="squared_error = 0.0\nsamples = 1\nvalue = 384.0"] ;
207 -> 208 ;
209 [label="Unnamed: 0 <= 38261.0\nsquared_error = 0.2\nsamples = 2\nvalue = 382.8"] ;
207 -> 209 ;
210 [label="squared_error = 0.0\nsamples = 1\nvalue = 382.0"] ;
209 -> 210 ;
211 [label="squared_error = 0.0\nsamples = 1\nvalue = 383.0"] ;
209 -> 211 ;
212 [label="depth <= 61.7\nsquared_error = 9.8\nsamples = 5\nvalue = 396.8"] ;
202 -> 212 ;
213 [label="squared_error = 0.0\nsamples = 2\nvalue = 401.0"] ;
212 -> 213 ;
214 [label="Unnamed: 0 <= 47299.0\nsquared_error = 1.7\nsamples = 3\nvalue = 394.8"] ;
212 -> 214 ;
215 [label="squared_error = 0.0\nsamples = 2\nvalue = 394.0"] ;
214 -> 215 ;
216 [label="squared_error = 0.0\nsamples = 1\nvalue = 397.0"] ;
214 -> 216 ;
217 [label="y <= 4.2\nsquared_error = 1874.0\nsamples = 3\nvalue = 430.0"] ;
197 -> 217 ;
218 [label="squared_error = 0.0\nsamples = 1\nvalue = 500.0"] ;
217 -> 218 ;
219 [label="x <= 4.2\nsquared_error = 320.9\nsamples = 2\nvalue = 406.7"] ;
217 -> 219 ;
220 [label="squared_error = 0.0\nsamples = 1\nvalue = 394.0"] ;
219 -> 220 ;
221 [label="squared_error = 0.0\nsamples = 1\nvalue = 432.0"] ;
219 -> 221 ;
222 [label="Unnamed: 0 <= 38277.0\nsquared_error = 1966.9\nsamples = 111\nvalue = 460.3"] ;
190 -> 222 ;
223 [label="Unnamed: 0 <= 38103.0\nsquared_error = 1235.1\nsamples = 79\nvalue = 449.3"] ;
222 -> 223 ;
224 [label="Unnamed: 0 <= 35126.5\nsquared_error = 1031.1\nsamples = 75\nvalue = 453.3"] ;
223 -> 224 ;
225 [label="Unnamed: 0 <= 34772.5\nsquared_error = 1057.6\nsamples = 64\nvalue = 449.7"] ;
224 -> 225 ;
226 [label="Unnamed: 0 <= 29412.5\nsquared_error = 872.0\nsamples = 62\nvalue = 452.6"] ;
225 -> 226 ;
227 [label="Unnamed: 0 <= 28459.5\nsquared_error = 4.0\nsamples = 16\nvalue = 434.0"] ;
226 -> 227 ;
228 [label="Unnamed: 0 <= 27949.5\nsquared_error = 0.2\nsamples = 6\nvalue = 431.7"] ;
227 -> 228 ;
229 [label="squared_error = 0.0\nsamples = 1\nvalue = 431.0"] ;
228 -> 229 ;
230 [label="squared_error = 0.0\nsamples = 5\nvalue = 432.0"] ;
228 -> 230 ;
231 [label="Unnamed: 0 <= 28969.5\nsquared_error = 0.5\nsamples = 10\nvalue = 435.6"] ;
227 -> 231 ;
232 [label="depth <= 61.6\nsquared_error = 0.2\nsamples = 4\nvalue = 434.5"] ;
231 -> 232 ;
233 [label="squared_error = 0.0\nsamples = 2\nvalue = 435.0"] ;
232 -> 233 ;
234 [label="squared_error = 0.0\nsamples = 2\nvalue = 434.0"] ;
232 -> 234 ;
235 [label="squared_error = 0.0\nsamples = 6\nvalue = 436.0"] ;
231 -> 235 ;
236 [label="Unnamed: 0 <= 29576.0\nsquared_error = 1002.5\nsamples = 46\nvalue = 458.6"] ;
226 -> 236 ;
237 [label="squared_error = 0.0\nsamples = 1\nvalue = 704.0"] ;
236 -> 237 ;
238 [label="Unnamed: 0 <= 32473.0\nsquared_error = 191.2\nsamples = 45\nvalue = 455.3"] ;
236 -> 238 ;
239 [label="Unnamed: 0 <= 31629.5\nsquared_error = 150.2\nsamples = 28\nvalue = 448.0"] ;
238 -> 239 ;
240 [label="Unnamed: 0 <= 31448.5\nsquared_error = 319.7\nsamples = 10\nvalue = 440.3"] ;
239 -> 240 ;
241 [label="color <= 3.5\nsquared_error = 20.9\nsamples = 9\nvalue = 444.6"] ;
240 -> 241 ;
242 [label="table <= 53.5\nsquared_error = 3.0\nsamples = 5\nvalue = 448.0"] ;
241 -> 242 ;
243 [label="squared_error = 0.0\nsamples = 1\nvalue = 445.0"] ;
242 -> 243 ;
244 [label="y <= 4.1\nsquared_error = 0.9\nsamples = 4\nvalue = 448.8"] ;
242 -> 244 ;
245 [label="squared_error = 0.0\nsamples = 1\nvalue = 450.0"] ;
244 -> 245 ;
246 [label="squared_error = 0.0\nsamples = 3\nvalue = 448.0"] ;
244 -> 246 ;
247 [label="squared_error = 0.0\nsamples = 4\nvalue = 439.0"] ;
241 -> 247 ;
248 [label="squared_error = 0.0\nsamples = 1\nvalue = 371.0"] ;
240 -> 248 ;
249 [label="Unnamed: 0 <= 31973.0\nsquared_error = 0.8\nsamples = 18\nvalue = 452.4"] ;
239 -> 249 ;
250 [label="color <= 4.0\nsquared_error = 0.1\nsamples = 10\nvalue = 451.8"] ;
249 -> 250 ;
251 [label="squared_error = 0.0\nsamples = 1\nvalue = 451.0"] ;
250 -> 251 ;
252 [label="squared_error = 0.0\nsamples = 9\nvalue = 452.0"] ;
250 -> 252 ;
253 [label="table <= 55.5\nsquared_error = 0.6\nsamples = 8\nvalue = 453.2"] ;
249 -> 253 ;
254 [label="squared_error = 0.0\nsamples = 1\nvalue = 456.0"] ;
253 -> 254 ;
255 [label="squared_error = 0.0\nsamples = 7\nvalue = 453.0"] ;
253 -> 255 ;
256 [label="Unnamed: 0 <= 34107.0\nsquared_error = 12.5\nsamples = 17\nvalue = 467.9"] ;
238 -> 256 ;
257 [label="Unnamed: 0 <= 33113.5\nsquared_error = 3.2\nsamples = 4\nvalue = 461.0"] ;
256 -> 257 ;
258 [label="Unnamed: 0 <= 32793.0\nsquared_error = 0.2\nsamples = 2\nvalue = 459.7"] ;
257 -> 258 ;
259 [label="squared_error = 0.0\nsamples = 1\nvalue = 459.0"] ;
258 -> 259 ;
260 [label="squared_error = 0.0\nsamples = 1\nvalue = 460.0"] ;
258 -> 260 ;
261 [label="Unnamed: 0 <= 33608.5\nsquared_error = 1.0\nsamples = 2\nvalue = 463.0"] ;
257 -> 261 ;
262 [label="squared_error = 0.0\nsamples = 1\nvalue = 462.0"] ;
261 -> 262 ;
263 [label="squared_error = 0.0\nsamples = 1\nvalue = 464.0"] ;
261 -> 263 ;
264 [label="color <= 4.5\nsquared_error = 1.3\nsamples = 13\nvalue = 469.5"] ;
256 -> 264 ;
265 [label="squared_error = 0.0\nsamples = 2\nvalue = 467.0"] ;
264 -> 265 ;
266 [label="squared_error = 0.0\nsamples = 11\nvalue = 470.0"] ;
264 -> 266 ;
267 [label="cut <= 2.5\nsquared_error = 9.0\nsamples = 2\nvalue = 376.0"] ;
225 -> 267 ;
268 [label="squared_error = 0.0\nsamples = 1\nvalue = 373.0"] ;
267 -> 268 ;
269 [label="squared_error = 0.0\nsamples = 1\nvalue = 379.0"] ;
267 -> 269 ;
270 [label="Unnamed: 0 <= 37114.5\nsquared_error = 21.2\nsamples = 11\nvalue = 480.1"] ;
224 -> 270 ;
271 [label="z <= 2.6\nsquared_error = 8.7\nsamples = 7\nvalue = 477.3"] ;
270 -> 271 ;
272 [label="depth <= 61.8\nsquared_error = 0.9\nsamples = 4\nvalue = 479.3"] ;
271 -> 272 ;
273 [label="squared_error = 0.0\nsamples = 3\nvalue = 480.0"] ;
272 -> 273 ;
274 [label="squared_error = 0.0\nsamples = 1\nvalue = 478.0"] ;
272 -> 274 ;
275 [label="depth <= 63.0\nsquared_error = 0.2\nsamples = 3\nvalue = 473.3"] ;
271 -> 275 ;
276 [label="squared_error = 0.0\nsamples = 1\nvalue = 474.0"] ;
275 -> 276 ;
277 [label="squared_error = 0.0\nsamples = 2\nvalue = 473.0"] ;
275 -> 277 ;
278 [label="table <= 56.5\nsquared_error = 6.0\nsamples = 4\nvalue = 485.0"] ;
270 -> 278 ;
279 [label="squared_error = 0.0\nsamples = 2\nvalue = 482.0"] ;
278 -> 279 ;
280 [label="squared_error = 0.0\nsamples = 2\nvalue = 487.0"] ;
278 -> 280 ;
281 [label="z <= 2.5\nsquared_error = 2.7\nsamples = 4\nvalue = 383.1"] ;
223 -> 281 ;
282 [label="cut <= 3.5\nsquared_error = 0.2\nsamples = 3\nvalue = 381.8"] ;
281 -> 282 ;
283 [label="squared_error = 0.0\nsamples = 1\nvalue = 381.0"] ;
282 -> 283 ;
284 [label="squared_error = 0.0\nsamples = 2\nvalue = 382.0"] ;
282 -> 284 ;
285 [label="squared_error = 0.0\nsamples = 1\nvalue = 385.0"] ;
281 -> 285 ;
286 [label="table <= 57.5\nsquared_error = 2722.3\nsamples = 32\nvalue = 483.8"] ;
222 -> 286 ;
287 [label="color <= 4.5\nsquared_error = 1886.9\nsamples = 21\nvalue = 497.1"] ;
286 -> 287 ;
288 [label="x <= 4.1\nsquared_error = 2226.1\nsamples = 11\nvalue = 478.0"] ;
287 -> 288 ;
289 [label="depth <= 62.1\nsquared_error = 0.6\nsamples = 3\nvalue = 397.3"] ;
288 -> 289 ;
290 [label="squared_error = 0.0\nsamples = 1\nvalue = 399.0"] ;
289 -> 290 ;
291 [label="squared_error = 0.0\nsamples = 2\nvalue = 397.0"] ;
289 -> 291 ;
292 [label="color <= 2.5\nsquared_error = 225.1\nsamples = 8\nvalue = 503.5"] ;
288 -> 292 ;
293 [label="squared_error = 0.0\nsamples = 1\nvalue = 534.0"] ;
292 -> 293 ;
294 [label="Unnamed: 0 <= 40769.5\nsquared_error = 59.8\nsamples = 7\nvalue = 497.8"] ;
292 -> 294 ;
295 [label="y <= 4.2\nsquared_error = 8.5\nsamples = 4\nvalue = 491.6"] ;
294 -> 295 ;
296 [label="squared_error = 0.0\nsamples = 3\nvalue = 490.0"] ;
295 -> 296 ;
297 [label="squared_error = 0.0\nsamples = 1\nvalue = 497.0"] ;
295 -> 297 ;
298 [label="color <= 3.5\nsquared_error = 13.1\nsamples = 3\nvalue = 505.7"] ;
294 -> 298 ;
299 [label="squared_error = 0.0\nsamples = 1\nvalue = 500.0"] ;
298 -> 299 ;
300 [label="squared_error = 0.0\nsamples = 2\nvalue = 508.0"] ;
298 -> 300 ;
301 [label="cut <= 3.5\nsquared_error = 200.3\nsamples = 10\nvalue = 523.7"] ;
287 -> 301 ;
302 [label="z <= 2.6\nsquared_error = 76.2\nsamples = 5\nvalue = 511.2"] ;
301 -> 302 ;
303 [label="squared_error = 0.0\nsamples = 2\nvalue = 499.0"] ;
302 -> 303 ;
304 [label="carat <= 0.3\nsquared_error = 2.2\nsamples = 3\nvalue = 517.3"] ;
302 -> 304 ;
305 [label="squared_error = 0.0\nsamples = 2\nvalue = 518.0"] ;
304 -> 305 ;
306 [label="squared_error = 0.0\nsamples = 1\nvalue = 514.0"] ;
304 -> 306 ;
307 [label="y <= 4.1\nsquared_error = 12.0\nsamples = 5\nvalue = 536.2"] ;
301 -> 307 ;
308 [label="squared_error = 0.0\nsamples = 4\nvalue = 535.0"] ;
307 -> 308 ;
309 [label="squared_error = 0.0\nsamples = 1\nvalue = 546.0"] ;
307 -> 309 ;
310 [label="y <= 4.1\nsquared_error = 3142.9\nsamples = 11\nvalue = 445.5"] ;
286 -> 310 ;
311 [label="x <= 4.1\nsquared_error = 2815.4\nsamples = 3\nvalue = 490.8"] ;
310 -> 311 ;
312 [label="squared_error = 0.0\nsamples = 1\nvalue = 388.0"] ;
311 -> 312 ;
313 [label="z <= 2.5\nsquared_error = 216.8\nsamples = 2\nvalue = 516.5"] ;
311 -> 313 ;
314 [label="squared_error = 0.0\nsamples = 1\nvalue = 525.0"] ;
313 -> 314 ;
315 [label="squared_error = 0.0\nsamples = 1\nvalue = 491.0"] ;
313 -> 315 ;
316 [label="Unnamed: 0 <= 39937.5\nsquared_error = 1769.9\nsamples = 8\nvalue = 422.9"] ;
310 -> 316 ;
317 [label="squared_error = 0.0\nsamples = 3\nvalue = 487.0"] ;
316 -> 317 ;
318 [label="y <= 4.1\nsquared_error = 12.8\nsamples = 5\nvalue = 395.4"] ;
316 -> 318 ;
319 [label="squared_error = 0.0\nsamples = 1\nvalue = 388.0"] ;
318 -> 319 ;
320 [label="carat <= 0.3\nsquared_error = 4.2\nsamples = 4\nvalue = 396.7"] ;
318 -> 320 ;
321 [label="carat <= 0.3\nsquared_error = 1.0\nsamples = 3\nvalue = 398.0"] ;
320 -> 321 ;
322 [label="squared_error = 0.0\nsamples = 2\nvalue = 399.0"] ;
321 -> 322 ;
323 [label="squared_error = 0.0\nsamples = 1\nvalue = 397.0"] ;
321 -> 323 ;
324 [label="squared_error = 0.0\nsamples = 1\nvalue = 394.0"] ;
320 -> 324 ;
325 [label="color <= 3.5\nsquared_error = 11708.9\nsamples = 289\nvalue = 551.7"] ;
7 -> 325 ;
326 [label="y <= 4.2\nsquared_error = 4184.1\nsamples = 95\nvalue = 479.7"] ;
325 -> 326 ;
327 [label="Unnamed: 0 <= 29151.0\nsquared_error = 2116.4\nsamples = 10\nvalue = 559.6"] ;
326 -> 327 ;
328 [label="clarity <= 5.5\nsquared_error = 557.6\nsamples = 4\nvalue = 599.4"] ;
327 -> 328 ;
329 [label="squared_error = 0.0\nsamples = 1\nvalue = 554.0"] ;
328 -> 329 ;
330 [label="z <= 2.7\nsquared_error = 52.9\nsamples = 3\nvalue = 610.8"] ;
328 -> 330 ;
331 [label="squared_error = 0.0\nsamples = 2\nvalue = 608.0"] ;
330 -> 331 ;
332 [label="squared_error = 0.0\nsamples = 1\nvalue = 630.0"] ;
330 -> 332 ;
333 [label="color <= 2.5\nsquared_error = 499.2\nsamples = 6\nvalue = 519.7"] ;
327 -> 333 ;
334 [label="Unnamed: 0 <= 39275.5\nsquared_error = 174.2\nsamples = 4\nvalue = 499.4"] ;
333 -> 334 ;
335 [label="squared_error = 0.0\nsamples = 1\nvalue = 473.0"] ;
334 -> 335 ;
336 [label="squared_error = 0.0\nsamples = 3\nvalue = 506.0"] ;
334 -> 336 ;
337 [label="squared_error = 0.0\nsamples = 2\nvalue = 540.0"] ;
333 -> 337 ;
338 [label="clarity <= 5.5\nsquared_error = 3288.3\nsamples = 85\nvalue = 466.4"] ;
326 -> 338 ;
339 [label="y <= 4.3\nsquared_error = 1920.6\nsamples = 31\nvalue = 427.0"] ;
338 -> 339 ;
340 [label="cut <= 2.5\nsquared_error = 3013.1\nsamples = 9\nvalue = 472.7"] ;
339 -> 340 ;
341 [label="y <= 4.2\nsquared_error = 1073.8\nsamples = 6\nvalue = 437.1"] ;
340 -> 341 ;
342 [label="color <= 2.0\nsquared_error = 210.9\nsamples = 3\nvalue = 469.3"] ;
341 -> 342 ;
343 [label="squared_error = 0.0\nsamples = 1\nvalue = 450.0"] ;
342 -> 343 ;
344 [label="Unnamed: 0 <= 36605.0\nsquared_error = 36.0\nsamples = 2\nvalue = 479.0"] ;
342 -> 344 ;
345 [label="squared_error = 0.0\nsamples = 1\nvalue = 473.0"] ;
344 -> 345 ;
346 [label="squared_error = 0.0\nsamples = 1\nvalue = 485.0"] ;
344 -> 346 ;
347 [label="color <= 2.5\nsquared_error = 361.0\nsamples = 3\nvalue = 413.0"] ;
341 -> 347 ;
348 [label="squared_error = 0.0\nsamples = 2\nvalue = 394.0"] ;
347 -> 348 ;
349 [label="squared_error = 0.0\nsamples = 1\nvalue = 432.0"] ;
347 -> 349 ;
350 [label="z <= 2.7\nsquared_error = 313.0\nsamples = 3\nvalue = 535.0"] ;
340 -> 350 ;
351 [label="table <= 60.5\nsquared_error = 43.6\nsamples = 2\nvalue = 544.7"] ;
350 -> 351 ;
352 [label="squared_error = 0.0\nsamples = 1\nvalue = 554.0"] ;
351 -> 352 ;
353 [label="squared_error = 0.0\nsamples = 1\nvalue = 540.0"] ;
351 -> 353 ;
354 [label="squared_error = 0.0\nsamples = 1\nvalue = 506.0"] ;
350 -> 354 ;
355 [label="Unnamed: 0 <= 39.5\nsquared_error = 670.1\nsamples = 22\nvalue = 412.1"] ;
339 -> 355 ;
356 [label="squared_error = 0.0\nsamples = 3\nvalue = 351.0"] ;
355 -> 356 ;
357 [label="x <= 4.3\nsquared_error = 338.1\nsamples = 19\nvalue = 418.1"] ;
355 -> 357 ;
358 [label="Unnamed: 0 <= 29956.5\nsquared_error = 268.8\nsamples = 10\nvalue = 407.2"] ;
357 -> 358 ;
359 [label="Unnamed: 0 <= 10038.0\nsquared_error = 107.1\nsamples = 7\nvalue = 414.8"] ;
358 -> 359 ;
360 [label="Unnamed: 0 <= 1716.5\nsquared_error = 1.0\nsamples = 3\nvalue = 406.0"] ;
359 -> 360 ;
361 [label="squared_error = 0.0\nsamples = 2\nvalue = 405.0"] ;
360 -> 361 ;
362 [label="squared_error = 0.0\nsamples = 1\nvalue = 407.0"] ;
360 -> 362 ;
363 [label="x <= 4.2\nsquared_error = 29.0\nsamples = 4\nvalue = 425.4"] ;
359 -> 363 ;
364 [label="squared_error = 0.0\nsamples = 1\nvalue = 432.0"] ;
363 -> 364 ;
365 [label="squared_error = 0.0\nsamples = 3\nvalue = 421.0"] ;
363 -> 365 ;
366 [label="clarity <= 4.5\nsquared_error = 115.2\nsamples = 3\nvalue = 386.2"] ;
358 -> 366 ;
367 [label="squared_error = 0.0\nsamples = 1\nvalue = 368.0"] ;
366 -> 367 ;
368 [label="cut <= 2.5\nsquared_error = 5.6\nsamples = 2\nvalue = 392.3"] ;
366 -> 368 ;
369 [label="squared_error = 0.0\nsamples = 1\nvalue = 394.0"] ;
368 -> 369 ;
370 [label="squared_error = 0.0\nsamples = 1\nvalue = 389.0"] ;
368 -> 370 ;
371 [label="Unnamed: 0 <= 39455.5\nsquared_error = 188.6\nsamples = 9\nvalue = 428.2"] ;
357 -> 371 ;
372 [label="Unnamed: 0 <= 29969.0\nsquared_error = 117.7\nsamples = 8\nvalue = 430.5"] ;
371 -> 372 ;
373 [label="Unnamed: 0 <= 25825.5\nsquared_error = 28.7\nsamples = 6\nvalue = 425.7"] ;
372 -> 373 ;
374 [label="cut <= 4.0\nsquared_error = 0.1\nsamples = 3\nvalue = 421.1"] ;
373 -> 374 ;
375 [label="squared_error = 0.0\nsamples = 2\nvalue = 421.0"] ;
374 -> 375 ;
376 [label="squared_error = 0.0\nsamples = 1\nvalue = 422.0"] ;
374 -> 376 ;
377 [label="squared_error = 0.0\nsamples = 3\nvalue = 432.0"] ;
373 -> 377 ;
378 [label="squared_error = 0.0\nsamples = 2\nvalue = 450.0"] ;
372 -> 378 ;
379 [label="squared_error = 0.0\nsamples = 1\nvalue = 394.0"] ;
371 -> 379 ;
380 [label="Unnamed: 0 <= 44989.0\nsquared_error = 2617.8\nsamples = 54\nvalue = 490.0"] ;
338 -> 380 ;
381 [label="Unnamed: 0 <= 43980.0\nsquared_error = 2850.1\nsamples = 38\nvalue = 475.4"] ;
380 -> 381 ;
382 [label="Unnamed: 0 <= 21521.5\nsquared_error = 2361.1\nsamples = 34\nvalue = 484.3"] ;
381 -> 382 ;
383 [label="squared_error = 0.0\nsamples = 1\nvalue = 608.0"] ;
382 -> 383 ;
384 [label="y <= 4.3\nsquared_error = 1740.9\nsamples = 33\nvalue = 478.6"] ;
382 -> 384 ;
385 [label="Unnamed: 0 <= 31609.0\nsquared_error = 674.2\nsamples = 28\nvalue = 471.1"] ;
384 -> 385 ;
386 [label="Unnamed: 0 <= 29137.0\nsquared_error = 24.0\nsamples = 7\nvalue = 440.6"] ;
385 -> 386 ;
387 [label="color <= 2.0\nsquared_error = 9.0\nsamples = 2\nvalue = 432.0"] ;
386 -> 387 ;
388 [label="squared_error = 0.0\nsamples = 1\nvalue = 435.0"] ;
387 -> 388 ;
389 [label="squared_error = 0.0\nsamples = 1\nvalue = 429.0"] ;
387 -> 389 ;
390 [label="table <= 57.0\nsquared_error = 1.4\nsamples = 5\nvalue = 443.0"] ;
386 -> 390 ;
391 [label="squared_error = 0.0\nsamples = 2\nvalue = 444.0"] ;
390 -> 391 ;
392 [label="table <= 59.5\nsquared_error = 0.2\nsamples = 3\nvalue = 441.7"] ;
390 -> 392 ;
393 [label="squared_error = 0.0\nsamples = 1\nvalue = 441.0"] ;
392 -> 393 ;
394 [label="squared_error = 0.0\nsamples = 2\nvalue = 442.0"] ;
392 -> 394 ;
395 [label="Unnamed: 0 <= 42271.0\nsquared_error = 505.3\nsamples = 21\nvalue = 480.3"] ;
385 -> 395 ;
396 [label="Unnamed: 0 <= 41096.5\nsquared_error = 398.8\nsamples = 18\nvalue = 475.4"] ;
395 -> 396 ;
397 [label="Unnamed: 0 <= 38275.5\nsquared_error = 104.3\nsamples = 17\nvalue = 478.8"] ;
396 -> 397 ;
398 [label="Unnamed: 0 <= 34617.5\nsquared_error = 15.1\nsamples = 11\nvalue = 472.3"] ;
397 -> 398 ;
399 [label="carat <= 0.3\nsquared_error = 1.0\nsamples = 2\nvalue = 463.0"] ;
398 -> 399 ;
400 [label="squared_error = 0.0\nsamples = 1\nvalue = 462.0"] ;
399 -> 400 ;
401 [label="squared_error = 0.0\nsamples = 1\nvalue = 464.0"] ;
399 -> 401 ;
402 [label="cut <= 4.0\nsquared_error = 4.0\nsamples = 9\nvalue = 473.5"] ;
398 -> 402 ;
403 [label="squared_error = 0.0\nsamples = 8\nvalue = 473.0"] ;
402 -> 403 ;
404 [label="squared_error = 0.0\nsamples = 1\nvalue = 481.0"] ;
402 -> 404 ;
405 [label="Unnamed: 0 <= 40270.0\nsquared_error = 9.2\nsamples = 6\nvalue = 492.8"] ;
397 -> 405 ;
406 [label="squared_error = 0.0\nsamples = 5\nvalue = 491.0"] ;
405 -> 406 ;
407 [label="squared_error = 0.0\nsamples = 1\nvalue = 498.0"] ;
405 -> 407 ;
408 [label="squared_error = 0.0\nsamples = 1\nvalue = 389.0"] ;
396 -> 408 ;
409 [label="Unnamed: 0 <= 43618.5\nsquared_error = 36.0\nsamples = 3\nvalue = 512.0"] ;
395 -> 409 ;
410 [label="squared_error = 0.0\nsamples = 2\nvalue = 506.0"] ;
409 -> 410 ;
411 [label="squared_error = 0.0\nsamples = 1\nvalue = 518.0"] ;
409 -> 411 ;
412 [label="Unnamed: 0 <= 33888.5\nsquared_error = 6165.0\nsamples = 5\nvalue = 537.4"] ;
384 -> 412 ;
413 [label="squared_error = 0.0\nsamples = 1\nvalue = 693.0"] ;
412 -> 413 ;
414 [label="Unnamed: 0 <= 42292.5\nsquared_error = 140.2\nsamples = 4\nvalue = 498.5"] ;
412 -> 414 ;
415 [label="carat <= 0.3\nsquared_error = 18.0\nsamples = 3\nvalue = 492.0"] ;
414 -> 415 ;
416 [label="squared_error = 0.0\nsamples = 1\nvalue = 498.0"] ;
415 -> 416 ;
417 [label="squared_error = 0.0\nsamples = 2\nvalue = 489.0"] ;
415 -> 417 ;
418 [label="squared_error = 0.0\nsamples = 1\nvalue = 518.0"] ;
414 -> 418 ;
419 [label="squared_error = 0.0\nsamples = 4\nvalue = 394.0"] ;
381 -> 419 ;
420 [label="color <= 2.0\nsquared_error = 708.5\nsamples = 16\nvalue = 521.0"] ;
380 -> 420 ;
421 [label="squared_error = 0.0\nsamples = 1\nvalue = 394.0"] ;
420 -> 421 ;
422 [label="Unnamed: 0 <= 48128.5\nsquared_error = 7.0\nsamples = 15\nvalue = 526.6"] ;
420 -> 422 ;
423 [label="squared_error = 0.0\nsamples = 14\nvalue = 526.0"] ;
422 -> 423 ;
424 [label="squared_error = 0.0\nsamples = 1\nvalue = 539.0"] ;
422 -> 424 ;
425 [label="clarity <= 5.5\nsquared_error = 11718.9\nsamples = 194\nvalue = 583.8"] ;
325 -> 425 ;
426 [label="y <= 4.3\nsquared_error = 6227.4\nsamples = 69\nvalue = 513.8"] ;
425 -> 426 ;
427 [label="Unnamed: 0 <= 36547.5\nsquared_error = 5490.6\nsamples = 13\nvalue = 628.7"] ;
426 -> 427 ;
428 [label="color <= 5.5\nsquared_error = 1507.8\nsamples = 9\nvalue = 670.5"] ;
427 -> 428 ;
429 [label="Unnamed: 0 <= 15210.0\nsquared_error = 623.5\nsamples = 4\nvalue = 629.8"] ;
428 -> 429 ;
430 [label="squared_error = 0.0\nsamples = 1\nvalue = 574.0"] ;
429 -> 430 ;
431 [label="squared_error = 0.0\nsamples = 3\nvalue = 641.0"] ;
429 -> 431 ;
432 [label="Unnamed: 0 <= 29187.5\nsquared_error = 256.9\nsamples = 5\nvalue = 697.7"] ;
428 -> 432 ;
433 [label="squared_error = 0.0\nsamples = 2\nvalue = 675.0"] ;
432 -> 433 ;
434 [label="squared_error = 0.0\nsamples = 3\nvalue = 709.0"] ;
432 -> 434 ;
435 [label="Unnamed: 0 <= 45642.0\nsquared_error = 110.3\nsamples = 4\nvalue = 524.0"] ;
427 -> 435 ;
436 [label="Unnamed: 0 <= 43795.0\nsquared_error = 43.6\nsamples = 2\nvalue = 515.3"] ;
435 -> 436 ;
437 [label="squared_error = 0.0\nsamples = 1\nvalue = 506.0"] ;
436 -> 437 ;
438 [label="squared_error = 0.0\nsamples = 1\nvalue = 520.0"] ;
436 -> 438 ;
439 [label="z <= 2.6\nsquared_error = 26.9\nsamples = 2\nvalue = 532.7"] ;
435 -> 439 ;
440 [label="squared_error = 0.0\nsamples = 1\nvalue = 529.0"] ;
439 -> 440 ;
441 [label="squared_error = 0.0\nsamples = 1\nvalue = 540.0"] ;
439 -> 441 ;
442 [label="clarity <= 4.5\nsquared_error = 2788.0\nsamples = 56\nvalue = 488.2"] ;
426 -> 442 ;
443 [label="Unnamed: 0 <= 34435.5\nsquared_error = 440.4\nsamples = 12\nvalue = 414.7"] ;
442 -> 443 ;
444 [label="Unnamed: 0 <= 26819.0\nsquared_error = 235.2\nsamples = 8\nvalue = 427.1"] ;
443 -> 444 ;
445 [label="color <= 6.5\nsquared_error = 13.6\nsamples = 4\nvalue = 415.7"] ;
444 -> 445 ;
446 [label="Unnamed: 0 <= 21683.0\nsquared_error = 0.2\nsamples = 2\nvalue = 421.5"] ;
445 -> 446 ;
447 [label="squared_error = 0.0\nsamples = 1\nvalue = 421.0"] ;
446 -> 447 ;
448 [label="squared_error = 0.0\nsamples = 1\nvalue = 422.0"] ;
446 -> 448 ;
449 [label="depth <= 61.5\nsquared_error = 0.2\nsamples = 2\nvalue = 413.4"] ;
445 -> 449 ;
450 [label="squared_error = 0.0\nsamples = 1\nvalue = 414.0"] ;
449 -> 450 ;
451 [label="squared_error = 0.0\nsamples = 1\nvalue = 413.0"] ;
449 -> 451 ;
452 [label="squared_error = 0.0\nsamples = 4\nvalue = 447.0"] ;
444 -> 452 ;
453 [label="cut <= 4.5\nsquared_error = 20.0\nsamples = 4\nvalue = 392.0"] ;
443 -> 453 ;
454 [label="squared_error = 0.0\nsamples = 3\nvalue = 394.0"] ;
453 -> 454 ;
455 [label="squared_error = 0.0\nsamples = 1\nvalue = 382.0"] ;
453 -> 455 ;
456 [label="color <= 5.5\nsquared_error = 1851.3\nsamples = 44\nvalue = 504.4"] ;
442 -> 456 ;
457 [label="Unnamed: 0 <= 34454.5\nsquared_error = 937.8\nsamples = 20\nvalue = 464.2"] ;
456 -> 457 ;
458 [label="Unnamed: 0 <= 29292.0\nsquared_error = 275.0\nsamples = 11\nvalue = 438.1"] ;
457 -> 458 ;
459 [label="Unnamed: 0 <= 22309.0\nsquared_error = 96.6\nsamples = 5\nvalue = 422.9"] ;
458 -> 459 ;
460 [label="color <= 4.5\nsquared_error = 43.7\nsamples = 3\nvalue = 414.2"] ;
459 -> 460 ;
461 [label="table <= 54.5\nsquared_error = 2.0\nsamples = 2\nvalue = 418.0"] ;
460 -> 461 ;
462 [label="squared_error = 0.0\nsamples = 1\nvalue = 420.0"] ;
461 -> 462 ;
463 [label="squared_error = 0.0\nsamples = 1\nvalue = 417.0"] ;
461 -> 463 ;
464 [label="squared_error = 0.0\nsamples = 1\nvalue = 403.0"] ;
460 -> 464 ;
465 [label="carat <= 0.3\nsquared_error = 0.8\nsamples = 2\nvalue = 431.5"] ;
459 -> 465 ;
466 [label="squared_error = 0.0\nsamples = 1\nvalue = 430.0"] ;
465 -> 466 ;
467 [label="squared_error = 0.0\nsamples = 1\nvalue = 432.0"] ;
465 -> 467 ;
468 [label="Unnamed: 0 <= 31793.0\nsquared_error = 43.6\nsamples = 6\nvalue = 451.7"] ;
458 -> 468 ;
469 [label="squared_error = 0.0\nsamples = 4\nvalue = 447.0"] ;
468 -> 469 ;
470 [label="squared_error = 0.0\nsamples = 2\nvalue = 461.0"] ;
468 -> 470 ;
471 [label="Unnamed: 0 <= 38612.5\nsquared_error = 153.4\nsamples = 9\nvalue = 491.9"] ;
457 -> 471 ;
472 [label="z <= 2.7\nsquared_error = 0.9\nsamples = 3\nvalue = 476.3"] ;
471 -> 472 ;
473 [label="squared_error = 0.0\nsamples = 2\nvalue = 477.0"] ;
472 -> 473 ;
474 [label="squared_error = 0.0\nsamples = 1\nvalue = 475.0"] ;
472 -> 474 ;
475 [label="carat <= 0.3\nsquared_error = 13.0\nsamples = 6\nvalue = 501.2"] ;
471 -> 475 ;
476 [label="squared_error = 0.0\nsamples = 5\nvalue = 500.0"] ;
475 -> 476 ;
477 [label="squared_error = 0.0\nsamples = 1\nvalue = 512.0"] ;
475 -> 477 ;
478 [label="Unnamed: 0 <= 20184.0\nsquared_error = 413.2\nsamples = 24\nvalue = 534.6"] ;
456 -> 478 ;
479 [label="squared_error = 0.0\nsamples = 3\nvalue = 571.0"] ;
478 -> 479 ;
480 [label="Unnamed: 0 <= 48985.5\nsquared_error = 308.5\nsamples = 21\nvalue = 530.9"] ;
478 -> 480 ;
481 [label="Unnamed: 0 <= 42434.0\nsquared_error = 159.7\nsamples = 12\nvalue = 519.9"] ;
480 -> 481 ;
482 [label="Unnamed: 0 <= 38443.5\nsquared_error = 99.2\nsamples = 3\nvalue = 493.2"] ;
481 -> 482 ;
483 [label="squared_error = 0.0\nsamples = 1\nvalue = 476.0"] ;
482 -> 483 ;
484 [label="squared_error = 0.0\nsamples = 2\nvalue = 499.0"] ;
482 -> 484 ;
485 [label="color <= 6.5\nsquared_error = 10.4\nsamples = 9\nvalue = 525.0"] ;
481 -> 485 ;
486 [label="squared_error = 0.0\nsamples = 8\nvalue = 526.0"] ;
485 -> 486 ;
487 [label="squared_error = 0.0\nsamples = 1\nvalue = 515.0"] ;
485 -> 487 ;
488 [label="z <= 2.7\nsquared_error = 14.2\nsamples = 9\nvalue = 549.3"] ;
480 -> 488 ;
489 [label="squared_error = 0.0\nsamples = 7\nvalue = 552.0"] ;
488 -> 489 ;
490 [label="squared_error = 0.0\nsamples = 2\nvalue = 544.0"] ;
488 -> 490 ;
491 [label="Unnamed: 0 <= 36974.0\nsquared_error = 10446.1\nsamples = 125\nvalue = 624.0"] ;
425 -> 491 ;
492 [label="Unnamed: 0 <= 35321.0\nsquared_error = 9327.8\nsamples = 100\nvalue = 650.0"] ;
491 -> 492 ;
493 [label="carat <= 0.3\nsquared_error = 6522.8\nsamples = 97\nvalue = 639.2"] ;
492 -> 493 ;
494 [label="cut <= 3.5\nsquared_error = 8807.2\nsamples = 19\nvalue = 545.2"] ;
493 -> 494 ;
495 [label="color <= 4.5\nsquared_error = 6383.7\nsamples = 9\nvalue = 466.4"] ;
494 -> 495 ;
496 [label="Unnamed: 0 <= 32431.5\nsquared_error = 10890.2\nsamples = 4\nvalue = 531.2"] ;
495 -> 496 ;
497 [label="squared_error = 0.0\nsamples = 1\nvalue = 712.0"] ;
496 -> 497 ;
498 [label="squared_error = 0.0\nsamples = 3\nvalue = 471.0"] ;
496 -> 498 ;
499 [label="cut <= 2.5\nsquared_error = 978.0\nsamples = 5\nvalue = 434.0"] ;
495 -> 499 ;
500 [label="Unnamed: 0 <= 22484.0\nsquared_error = 270.8\nsamples = 2\nvalue = 405.5"] ;
499 -> 500 ;
501 [label="squared_error = 0.0\nsamples = 1\nvalue = 415.0"] ;
500 -> 501 ;
502 [label="squared_error = 0.0\nsamples = 1\nvalue = 377.0"] ;
500 -> 502 ;
503 [label="clarity <= 6.5\nsquared_error = 60.8\nsamples = 3\nvalue = 462.5"] ;
499 -> 503 ;
504 [label="squared_error = 0.0\nsamples = 1\nvalue = 470.0"] ;
503 -> 504 ;
505 [label="depth <= 59.8\nsquared_error = 9.0\nsamples = 2\nvalue = 455.0"] ;
503 -> 505 ;
506 [label="squared_error = 0.0\nsamples = 1\nvalue = 452.0"] ;
505 -> 506 ;
507 [label="squared_error = 0.0\nsamples = 1\nvalue = 458.0"] ;
505 -> 507 ;
508 [label="Unnamed: 0 <= 30992.5\nsquared_error = 1811.5\nsamples = 10\nvalue = 608.2"] ;
494 -> 508 ;
509 [label="Unnamed: 0 <= 16210.0\nsquared_error = 479.2\nsamples = 9\nvalue = 618.1"] ;
508 -> 509 ;
510 [label="Unnamed: 0 <= 9557.5\nsquared_error = 141.2\nsamples = 4\nvalue = 588.8"] ;
509 -> 510 ;
511 [label="squared_error = 0.0\nsamples = 2\nvalue = 577.0"] ;
510 -> 511 ;
512 [label="y <= 4.2\nsquared_error = 6.2\nsamples = 2\nvalue = 600.5"] ;
510 -> 512 ;
513 [label="squared_error = 0.0\nsamples = 1\nvalue = 603.0"] ;
512 -> 513 ;
514 [label="squared_error = 0.0\nsamples = 1\nvalue = 598.0"] ;
512 -> 514 ;
515 [label="z <= 2.6\nsquared_error = 133.0\nsamples = 5\nvalue = 629.8"] ;
509 -> 515 ;
516 [label="Unnamed: 0 <= 19370.5\nsquared_error = 8.8\nsamples = 3\nvalue = 622.4"] ;
515 -> 516 ;
517 [label="squared_error = 0.0\nsamples = 1\nvalue = 619.0"] ;
516 -> 517 ;
518 [label="squared_error = 0.0\nsamples = 2\nvalue = 625.0"] ;
516 -> 518 ;
519 [label="squared_error = 0.0\nsamples = 2\nvalue = 647.0"] ;
515 -> 519 ;
520 [label="squared_error = 0.0\nsamples = 1\nvalue = 470.0"] ;
508 -> 520 ;
521 [label="Unnamed: 0 <= 28892.0\nsquared_error = 3784.5\nsamples = 78\nvalue = 659.0"] ;
493 -> 521 ;
522 [label="Unnamed: 0 <= 24352.0\nsquared_error = 812.8\nsamples = 55\nvalue = 625.5"] ;
521 -> 522 ;
523 [label="Unnamed: 0 <= 10045.0\nsquared_error = 284.8\nsamples = 34\nvalue = 606.7"] ;
522 -> 523 ;
524 [label="z <= 2.6\nsquared_error = 8.2\nsamples = 6\nvalue = 568.4"] ;
523 -> 524 ;
525 [label="squared_error = 0.0\nsamples = 1\nvalue = 575.0"] ;
524 -> 525 ;
526 [label="table <= 58.5\nsquared_error = 1.2\nsamples = 5\nvalue = 567.3"] ;
524 -> 526 ;
527 [label="z <= 2.7\nsquared_error = 0.2\nsamples = 4\nvalue = 567.8"] ;
526 -> 527 ;
528 [label="squared_error = 0.0\nsamples = 3\nvalue = 568.0"] ;
527 -> 528 ;
529 [label="squared_error = 0.0\nsamples = 1\nvalue = 567.0"] ;
527 -> 529 ;
530 [label="squared_error = 0.0\nsamples = 1\nvalue = 565.0"] ;
526 -> 530 ;
531 [label="Unnamed: 0 <= 18541.0\nsquared_error = 90.1\nsamples = 28\nvalue = 612.0"] ;
523 -> 531 ;
532 [label="color <= 5.5\nsquared_error = 4.7\nsamples = 19\nvalue = 605.8"] ;
531 -> 532 ;
533 [label="z <= 2.7\nsquared_error = 0.4\nsamples = 18\nvalue = 605.2"] ;
532 -> 533 ;
534 [label="squared_error = 0.0\nsamples = 17\nvalue = 605.0"] ;
533 -> 534 ;
535 [label="squared_error = 0.0\nsamples = 1\nvalue = 607.0"] ;
533 -> 535 ;
536 [label="squared_error = 0.0\nsamples = 1\nvalue = 614.0"] ;
532 -> 536 ;
537 [label="y <= 4.3\nsquared_error = 12.0\nsamples = 9\nvalue = 625.3"] ;
531 -> 537 ;
538 [label="squared_error = 0.0\nsamples = 3\nvalue = 630.0"] ;
537 -> 538 ;
539 [label="carat <= 0.3\nsquared_error = 2.9\nsamples = 6\nvalue = 623.2"] ;
537 -> 539 ;
540 [label="clarity <= 6.5\nsquared_error = 0.2\nsamples = 2\nvalue = 621.7"] ;
539 -> 540 ;
541 [label="squared_error = 0.0\nsamples = 1\nvalue = 622.0"] ;
540 -> 541 ;
542 [label="squared_error = 0.0\nsamples = 1\nvalue = 621.0"] ;
540 -> 542 ;
543 [label="squared_error = 0.0\nsamples = 4\nvalue = 625.0"] ;
539 -> 543 ;
544 [label="Unnamed: 0 <= 27884.0\nsquared_error = 53.8\nsamples = 21\nvalue = 658.0"] ;
522 -> 544 ;
545 [label="table <= 57.0\nsquared_error = 7.4\nsamples = 3\nvalue = 644.8"] ;
544 -> 545 ;
546 [label="squared_error = 0.0\nsamples = 1\nvalue = 650.0"] ;
545 -> 546 ;
547 [label="depth <= 63.4\nsquared_error = 0.8\nsamples = 2\nvalue = 643.5"] ;
545 -> 547 ;
548 [label="squared_error = 0.0\nsamples = 1\nvalue = 642.0"] ;
547 -> 548 ;
549 [label="squared_error = 0.0\nsamples = 1\nvalue = 644.0"] ;
547 -> 549 ;
550 [label="Unnamed: 0 <= 28239.5\nsquared_error = 25.3\nsamples = 18\nvalue = 660.4"] ;
544 -> 550 ;
551 [label="depth <= 63.2\nsquared_error = 0.2\nsamples = 15\nvalue = 658.1"] ;
550 -> 551 ;
552 [label="squared_error = 0.0\nsamples = 14\nvalue = 658.0"] ;
551 -> 552 ;
553 [label="squared_error = 0.0\nsamples = 1\nvalue = 660.0"] ;
551 -> 553 ;
554 [label="cut <= 4.5\nsquared_error = 4.0\nsamples = 3\nvalue = 671.0"] ;
550 -> 554 ;
555 [label="squared_error = 0.0\nsamples = 1\nvalue = 675.0"] ;
554 -> 555 ;
556 [label="squared_error = 0.0\nsamples = 2\nvalue = 670.0"] ;
554 -> 556 ;
557 [label="Unnamed: 0 <= 31363.0\nsquared_error = 1869.6\nsamples = 23\nvalue = 738.3"] ;
521 -> 557 ;
558 [label="Unnamed: 0 <= 30084.0\nsquared_error = 206.3\nsamples = 16\nvalue = 715.1"] ;
557 -> 558 ;
559 [label="Unnamed: 0 <= 29391.0\nsquared_error = 30.8\nsamples = 11\nvalue = 706.3"] ;
558 -> 559 ;
560 [label="table <= 56.5\nsquared_error = 1.7\nsamples = 2\nvalue = 696.2"] ;
559 -> 560 ;
561 [label="squared_error = 0.0\nsamples = 1\nvalue = 697.0"] ;
560 -> 561 ;
562 [label="squared_error = 0.0\nsamples = 1\nvalue = 694.0"] ;
560 -> 562 ;
563 [label="clarity <= 6.5\nsquared_error = 4.4\nsamples = 9\nvalue = 709.0"] ;
559 -> 563 ;
564 [label="squared_error = 0.0\nsamples = 7\nvalue = 710.0"] ;
563 -> 564 ;
565 [label="table <= 61.0\nsquared_error = 2.0\nsamples = 2\nvalue = 705.0"] ;
563 -> 565 ;
566 [label="squared_error = 0.0\nsamples = 1\nvalue = 707.0"] ;
565 -> 566 ;
567 [label="squared_error = 0.0\nsamples = 1\nvalue = 704.0"] ;
565 -> 567 ;
568 [label="color <= 6.0\nsquared_error = 64.8\nsamples = 5\nvalue = 733.8"] ;
558 -> 568 ;
569 [label="squared_error = 0.0\nsamples = 2\nvalue = 725.0"] ;
568 -> 569 ;
570 [label="depth <= 61.9\nsquared_error = 5.8\nsamples = 3\nvalue = 740.8"] ;
568 -> 570 ;
571 [label="squared_error = 0.0\nsamples = 1\nvalue = 736.0"] ;
570 -> 571 ;
572 [label="squared_error = 0.0\nsamples = 2\nvalue = 742.0"] ;
570 -> 572 ;
573 [label="clarity <= 6.5\nsquared_error = 800.6\nsamples = 7\nvalue = 803.3"] ;
557 -> 573 ;
574 [label="squared_error = 0.0\nsamples = 3\nvalue = 844.0"] ;
573 -> 574 ;
575 [label="cut <= 1.5\nsquared_error = 129.6\nsamples = 4\nvalue = 785.9"] ;
573 -> 575 ;
576 [label="squared_error = 0.0\nsamples = 1\nvalue = 799.0"] ;
575 -> 576 ;
577 [label="squared_error = 0.0\nsamples = 3\nvalue = 776.0"] ;
575 -> 577 ;
578 [label="y <= 4.3\nsquared_error = 361.0\nsamples = 3\nvalue = 930.0"] ;
492 -> 578 ;
579 [label="squared_error = 0.0\nsamples = 2\nvalue = 911.0"] ;
578 -> 579 ;
580 [label="squared_error = 0.0\nsamples = 1\nvalue = 949.0"] ;
578 -> 580 ;
581 [label="y <= 4.3\nsquared_error = 732.8\nsamples = 25\nvalue = 516.6"] ;
491 -> 581 ;
582 [label="Unnamed: 0 <= 43965.0\nsquared_error = 378.6\nsamples = 24\nvalue = 519.7"] ;
581 -> 582 ;
583 [label="Unnamed: 0 <= 40780.5\nsquared_error = 55.9\nsamples = 10\nvalue = 499.0"] ;
582 -> 583 ;
584 [label="Unnamed: 0 <= 37947.0\nsquared_error = 7.2\nsamples = 5\nvalue = 489.7"] ;
583 -> 584 ;
585 [label="squared_error = 0.0\nsamples = 1\nvalue = 484.0"] ;
584 -> 585 ;
586 [label="Unnamed: 0 <= 39116.5\nsquared_error = 1.0\nsamples = 4\nvalue = 490.8"] ;
584 -> 586 ;
587 [label="squared_error = 0.0\nsamples = 1\nvalue = 489.0"] ;
586 -> 587 ;
588 [label="depth <= 61.9\nsquared_error = 0.2\nsamples = 3\nvalue = 491.2"] ;
586 -> 588 ;
589 [label="squared_error = 0.0\nsamples = 1\nvalue = 492.0"] ;
588 -> 589 ;
590 [label="squared_error = 0.0\nsamples = 2\nvalue = 491.0"] ;
588 -> 590 ;
591 [label="color <= 4.5\nsquared_error = 1.4\nsamples = 5\nvalue = 504.6"] ;
583 -> 591 ;
592 [label="squared_error = 0.0\nsamples = 1\nvalue = 507.0"] ;
591 -> 592 ;
593 [label="squared_error = 0.0\nsamples = 4\nvalue = 504.0"] ;
591 -> 593 ;
594 [label="Unnamed: 0 <= 49129.0\nsquared_error = 75.8\nsamples = 14\nvalue = 534.7"] ;
582 -> 594 ;
595 [label="Unnamed: 0 <= 47299.5\nsquared_error = 9.1\nsamples = 8\nvalue = 526.4"] ;
594 -> 595 ;
596 [label="z <= 2.7\nsquared_error = 2.5\nsamples = 7\nvalue = 525.1"] ;
595 -> 596 ;
597 [label="depth <= 62.0\nsquared_error = 0.5\nsamples = 6\nvalue = 525.6"] ;
596 -> 597 ;
598 [label="z <= 2.6\nsquared_error = 0.2\nsamples = 2\nvalue = 524.5"] ;
597 -> 598 ;
599 [label="squared_error = 0.0\nsamples = 1\nvalue = 525.0"] ;
598 -> 599 ;
600 [label="squared_error = 0.0\nsamples = 1\nvalue = 524.0"] ;
598 -> 600 ;
601 [label="squared_error = 0.0\nsamples = 4\nvalue = 526.0"] ;
597 -> 601 ;
602 [label="squared_error = 0.0\nsamples = 1\nvalue = 521.0"] ;
596 -> 602 ;
603 [label="squared_error = 0.0\nsamples = 1\nvalue = 532.0"] ;
595 -> 603 ;
604 [label="Unnamed: 0 <= 50461.5\nsquared_error = 2.6\nsamples = 6\nvalue = 543.1"] ;
594 -> 604 ;
605 [label="squared_error = 0.0\nsamples = 1\nvalue = 541.0"] ;
604 -> 605 ;
606 [label="Unnamed: 0 <= 51160.5\nsquared_error = 0.2\nsamples = 5\nvalue = 544.3"] ;
604 -> 606 ;
607 [label="squared_error = 0.0\nsamples = 3\nvalue = 544.0"] ;
606 -> 607 ;
608 [label="squared_error = 0.0\nsamples = 2\nvalue = 545.0"] ;
606 -> 608 ;
609 [label="squared_error = 0.0\nsamples = 1\nvalue = 399.0"] ;
581 -> 609 ;
610 [label="Unnamed: 0 <= 34908.5\nsquared_error = 10205.7\nsamples = 310\nvalue = 581.1"] ;
6 -> 610 ;
611 [label="x <= 4.1\nsquared_error = 11183.6\nsamples = 196\nvalue = 621.6"] ;
610 -> 611 ;
612 [label="color <= 4.5\nsquared_error = 8856.7\nsamples = 83\nvalue = 563.4"] ;
611 -> 612 ;
613 [label="Unnamed: 0 <= 1529.5\nsquared_error = 3025.9\nsamples = 18\nvalue = 439.8"] ;
612 -> 613 ;
614 [label="carat <= 0.2\nsquared_error = 72.0\nsamples = 2\nvalue = 342.0"] ;
613 -> 614 ;
615 [label="squared_error = 0.0\nsamples = 1\nvalue = 354.0"] ;
614 -> 615 ;
616 [label="squared_error = 0.0\nsamples = 1\nvalue = 336.0"] ;
614 -> 616 ;
617 [label="Unnamed: 0 <= 19850.5\nsquared_error = 1887.8\nsamples = 16\nvalue = 453.7"] ;
613 -> 617 ;
618 [label="depth <= 62.9\nsquared_error = 306.2\nsamples = 2\nvalue = 582.5"] ;
617 -> 618 ;
619 [label="squared_error = 0.0\nsamples = 1\nvalue = 600.0"] ;
618 -> 619 ;
620 [label="squared_error = 0.0\nsamples = 1\nvalue = 565.0"] ;
618 -> 620 ;
621 [label="Unnamed: 0 <= 29627.0\nsquared_error = 124.7\nsamples = 14\nvalue = 440.2"] ;
617 -> 621 ;
622 [label="Unnamed: 0 <= 28955.0\nsquared_error = 20.4\nsamples = 7\nvalue = 431.0"] ;
621 -> 622 ;
623 [label="z <= 2.5\nsquared_error = 5.2\nsamples = 5\nvalue = 429.0"] ;
622 -> 623 ;
624 [label="z <= 2.5\nsquared_error = 0.2\nsamples = 3\nvalue = 431.2"] ;
623 -> 624 ;
625 [label="squared_error = 0.0\nsamples = 2\nvalue = 431.0"] ;
624 -> 625 ;
626 [label="squared_error = 0.0\nsamples = 1\nvalue = 432.0"] ;
624 -> 626 ;
627 [label="y <= 4.1\nsquared_error = 0.2\nsamples = 2\nvalue = 426.8"] ;
623 -> 627 ;
628 [label="squared_error = 0.0\nsamples = 1\nvalue = 426.0"] ;
627 -> 628 ;
629 [label="squared_error = 0.0\nsamples = 1\nvalue = 427.0"] ;
627 -> 629 ;
630 [label="cut <= 2.5\nsquared_error = 1.0\nsamples = 2\nvalue = 439.0"] ;
622 -> 630 ;
631 [label="squared_error = 0.0\nsamples = 1\nvalue = 440.0"] ;
630 -> 631 ;
632 [label="squared_error = 0.0\nsamples = 1\nvalue = 438.0"] ;
630 -> 632 ;
633 [label="table <= 57.5\nsquared_error = 43.8\nsamples = 7\nvalue = 450.3"] ;
621 -> 633 ;
634 [label="z <= 2.5\nsquared_error = 5.4\nsamples = 6\nvalue = 448.1"] ;
633 -> 634 ;
635 [label="squared_error = 0.0\nsamples = 5\nvalue = 449.0"] ;
634 -> 635 ;
636 [label="squared_error = 0.0\nsamples = 1\nvalue = 442.0"] ;
634 -> 636 ;
637 [label="squared_error = 0.0\nsamples = 1\nvalue = 468.0"] ;
633 -> 637 ;
638 [label="carat <= 0.2\nsquared_error = 6098.8\nsamples = 65\nvalue = 590.1"] ;
612 -> 638 ;
639 [label="Unnamed: 0 <= 29334.5\nsquared_error = 5642.4\nsamples = 14\nvalue = 499.2"] ;
638 -> 639 ;
640 [label="cut <= 2.5\nsquared_error = 7665.7\nsamples = 5\nvalue = 573.8"] ;
639 -> 640 ;
641 [label="squared_error = 0.0\nsamples = 1\nvalue = 425.0"] ;
640 -> 641 ;
642 [label="depth <= 61.6\nsquared_error = 1724.8\nsamples = 4\nvalue = 616.3"] ;
640 -> 642 ;
643 [label="z <= 2.4\nsquared_error = 141.4\nsamples = 3\nvalue = 590.8"] ;
642 -> 643 ;
644 [label="squared_error = 0.0\nsamples = 1\nvalue = 600.0"] ;
643 -> 644 ;
645 [label="cut <= 3.5\nsquared_error = 36.0\nsamples = 2\nvalue = 577.0"] ;
643 -> 645 ;
646 [label="squared_error = 0.0\nsamples = 1\nvalue = 583.0"] ;
645 -> 646 ;
647 [label="squared_error = 0.0\nsamples = 1\nvalue = 571.0"] ;
645 -> 647 ;
648 [label="squared_error = 0.0\nsamples = 1\nvalue = 680.0"] ;
642 -> 648 ;
649 [label="Unnamed: 0 <= 32294.5\nsquared_error = 66.9\nsamples = 9\nvalue = 459.7"] ;
639 -> 649 ;
650 [label="z <= 2.4\nsquared_error = 11.8\nsamples = 2\nvalue = 447.8"] ;
649 -> 650 ;
651 [label="squared_error = 0.0\nsamples = 1\nvalue = 452.0"] ;
650 -> 651 ;
652 [label="squared_error = 0.0\nsamples = 1\nvalue = 445.0"] ;
650 -> 652 ;
653 [label="Unnamed: 0 <= 33615.5\nsquared_error = 6.2\nsamples = 7\nvalue = 464.7"] ;
649 -> 653 ;
654 [label="y <= 4.0\nsquared_error = 4.0\nsamples = 2\nvalue = 460.0"] ;
653 -> 654 ;
655 [label="squared_error = 0.0\nsamples = 1\nvalue = 458.0"] ;
654 -> 655 ;
656 [label="squared_error = 0.0\nsamples = 1\nvalue = 462.0"] ;
654 -> 656 ;
657 [label="color <= 5.5\nsquared_error = 1.4\nsamples = 5\nvalue = 465.6"] ;
653 -> 657 ;
658 [label="squared_error = 0.0\nsamples = 1\nvalue = 468.0"] ;
657 -> 658 ;
659 [label="squared_error = 0.0\nsamples = 4\nvalue = 465.0"] ;
657 -> 659 ;
660 [label="Unnamed: 0 <= 26054.0\nsquared_error = 2937.4\nsamples = 51\nvalue = 617.9"] ;
638 -> 660 ;
661 [label="Unnamed: 0 <= 10054.0\nsquared_error = 528.1\nsamples = 40\nvalue = 592.6"] ;
660 -> 661 ;
662 [label="Unnamed: 0 <= 4224.5\nsquared_error = 25.4\nsamples = 23\nvalue = 573.2"] ;
661 -> 662 ;
663 [label="y <= 4.1\nsquared_error = 24.5\nsamples = 4\nvalue = 564.7"] ;
662 -> 663 ;
664 [label="squared_error = 0.0\nsamples = 1\nvalue = 554.0"] ;
663 -> 664 ;
665 [label="y <= 4.1\nsquared_error = 6.2\nsamples = 3\nvalue = 566.5"] ;
663 -> 665 ;
666 [label="squared_error = 0.0\nsamples = 2\nvalue = 564.0"] ;
665 -> 666 ;
667 [label="squared_error = 0.0\nsamples = 1\nvalue = 569.0"] ;
665 -> 667 ;
668 [label="Unnamed: 0 <= 7219.0\nsquared_error = 3.1\nsamples = 19\nvalue = 575.3"] ;
662 -> 668 ;
669 [label="carat <= 0.3\nsquared_error = 0.9\nsamples = 18\nvalue = 575.0"] ;
668 -> 669 ;
670 [label="Unnamed: 0 <= 6054.5\nsquared_error = 0.2\nsamples = 17\nvalue = 575.3"] ;
669 -> 670 ;
671 [label="squared_error = 0.0\nsamples = 13\nvalue = 575.0"] ;
670 -> 671 ;
672 [label="squared_error = 0.0\nsamples = 4\nvalue = 576.0"] ;
670 -> 672 ;
673 [label="squared_error = 0.0\nsamples = 1\nvalue = 572.0"] ;
669 -> 673 ;
674 [label="squared_error = 0.0\nsamples = 1\nvalue = 583.0"] ;
668 -> 674 ;
675 [label="Unnamed: 0 <= 17369.0\nsquared_error = 194.8\nsamples = 17\nvalue = 614.4"] ;
661 -> 675 ;
676 [label="carat <= 0.2\nsquared_error = 23.1\nsamples = 9\nvalue = 601.9"] ;
675 -> 676 ;
677 [label="squared_error = 0.0\nsamples = 3\nvalue = 608.0"] ;
676 -> 677 ;
678 [label="Unnamed: 0 <= 12530.5\nsquared_error = 1.0\nsamples = 6\nvalue = 598.2"] ;
676 -> 678 ;
679 [label="squared_error = 0.0\nsamples = 2\nvalue = 597.0"] ;
678 -> 679 ;
680 [label="squared_error = 0.0\nsamples = 4\nvalue = 599.0"] ;
678 -> 680 ;
681 [label="Unnamed: 0 <= 21538.0\nsquared_error = 31.0\nsamples = 8\nvalue = 627.8"] ;
675 -> 681 ;
682 [label="Unnamed: 0 <= 19194.0\nsquared_error = 0.1\nsamples = 3\nvalue = 621.9"] ;
681 -> 682 ;
683 [label="squared_error = 0.0\nsamples = 1\nvalue = 621.0"] ;
682 -> 683 ;
684 [label="squared_error = 0.0\nsamples = 2\nvalue = 622.0"] ;
682 -> 684 ;
685 [label="squared_error = 0.0\nsamples = 5\nvalue = 633.0"] ;
681 -> 685 ;
686 [label="Unnamed: 0 <= 30152.0\nsquared_error = 1323.6\nsamples = 11\nvalue = 705.9"] ;
660 -> 686 ;
687 [label="Unnamed: 0 <= 29112.0\nsquared_error = 217.2\nsamples = 5\nvalue = 680.6"] ;
686 -> 687 ;
688 [label="x <= 4.1\nsquared_error = 24.7\nsamples = 4\nvalue = 672.4"] ;
687 -> 688 ;
689 [label="squared_error = 0.0\nsamples = 3\nvalue = 678.0"] ;
688 -> 689 ;
690 [label="squared_error = 0.0\nsamples = 1\nvalue = 668.0"] ;
688 -> 690 ;
691 [label="squared_error = 0.0\nsamples = 1\nvalue = 705.0"] ;
687 -> 691 ;
692 [label="table <= 56.5\nsquared_error = 226.8\nsamples = 6\nvalue = 749.4"] ;
686 -> 692 ;
693 [label="y <= 4.1\nsquared_error = 16.0\nsamples = 2\nvalue = 773.0"] ;
692 -> 693 ;
694 [label="squared_error = 0.0\nsamples = 1\nvalue = 769.0"] ;
693 -> 694 ;
695 [label="squared_error = 0.0\nsamples = 1\nvalue = 777.0"] ;
693 -> 695 ;
696 [label="squared_error = 0.0\nsamples = 4\nvalue = 740.0"] ;
692 -> 696 ;
697 [label="Unnamed: 0 <= 31314.0\nsquared_error = 8134.1\nsamples = 113\nvalue = 668.4"] ;
611 -> 697 ;
698 [label="Unnamed: 0 <= 23530.0\nsquared_error = 3784.5\nsamples = 88\nvalue = 632.8"] ;
697 -> 698 ;
699 [label="table <= 54.8\nsquared_error = 1456.5\nsamples = 44\nvalue = 593.7"] ;
698 -> 699 ;
700 [label="carat <= 0.3\nsquared_error = 6728.0\nsamples = 2\nvalue = 470.0"] ;
699 -> 700 ;
701 [label="squared_error = 0.0\nsamples = 1\nvalue = 412.0"] ;
700 -> 701 ;
702 [label="squared_error = 0.0\nsamples = 1\nvalue = 586.0"] ;
700 -> 702 ;
703 [label="Unnamed: 0 <= 10552.5\nsquared_error = 425.7\nsamples = 42\nvalue = 599.6"] ;
699 -> 703 ;
704 [label="Unnamed: 0 <= 6722.5\nsquared_error = 113.1\nsamples = 12\nvalue = 575.8"] ;
703 -> 704 ;
705 [label="depth <= 58.8\nsquared_error = 9.8\nsamples = 5\nvalue = 565.8"] ;
704 -> 705 ;
706 [label="squared_error = 0.0\nsamples = 1\nvalue = 575.0"] ;
705 -> 706 ;
707 [label="carat <= 0.3\nsquared_error = 1.5\nsamples = 4\nvalue = 564.9"] ;
705 -> 707 ;
708 [label="color <= 4.5\nsquared_error = 0.1\nsamples = 2\nvalue = 564.1"] ;
707 -> 708 ;
709 [label="squared_error = 0.0\nsamples = 1\nvalue = 565.0"] ;
708 -> 709 ;
710 [label="squared_error = 0.0\nsamples = 1\nvalue = 564.0"] ;
708 -> 710 ;
711 [label="depth <= 60.1\nsquared_error = 0.2\nsamples = 2\nvalue = 566.7"] ;
707 -> 711 ;
712 [label="squared_error = 0.0\nsamples = 1\nvalue = 567.0"] ;
711 -> 712 ;
713 [label="squared_error = 0.0\nsamples = 1\nvalue = 566.0"] ;
711 -> 713 ;
714 [label="Unnamed: 0 <= 8384.0\nsquared_error = 18.2\nsamples = 7\nvalue = 585.7"] ;
704 -> 714 ;
715 [label="carat <= 0.3\nsquared_error = 0.6\nsamples = 2\nvalue = 581.4"] ;
714 -> 715 ;
716 [label="squared_error = 0.0\nsamples = 1\nvalue = 583.0"] ;
715 -> 716 ;
717 [label="squared_error = 0.0\nsamples = 1\nvalue = 581.0"] ;
715 -> 717 ;
718 [label="Unnamed: 0 <= 9374.0\nsquared_error = 4.2\nsamples = 5\nvalue = 589.3"] ;
714 -> 718 ;
719 [label="Unnamed: 0 <= 8869.5\nsquared_error = 0.2\nsamples = 2\nvalue = 586.5"] ;
718 -> 719 ;
720 [label="squared_error = 0.0\nsamples = 1\nvalue = 586.0"] ;
719 -> 720 ;
721 [label="squared_error = 0.0\nsamples = 1\nvalue = 587.0"] ;
719 -> 721 ;
722 [label="table <= 58.0\nsquared_error = 0.2\nsamples = 3\nvalue = 590.8"] ;
718 -> 722 ;
723 [label="squared_error = 0.0\nsamples = 1\nvalue = 590.0"] ;
722 -> 723 ;
724 [label="squared_error = 0.0\nsamples = 2\nvalue = 591.0"] ;
722 -> 724 ;
725 [label="Unnamed: 0 <= 18206.0\nsquared_error = 111.8\nsamples = 30\nvalue = 612.8"] ;
703 -> 725 ;
726 [label="Unnamed: 0 <= 13378.0\nsquared_error = 23.9\nsamples = 15\nvalue = 603.7"] ;
725 -> 726 ;
727 [label="Unnamed: 0 <= 12693.0\nsquared_error = 2.1\nsamples = 5\nvalue = 596.8"] ;
726 -> 727 ;
728 [label="y <= 4.2\nsquared_error = 0.2\nsamples = 4\nvalue = 596.2"] ;
727 -> 728 ;
729 [label="squared_error = 0.0\nsamples = 3\nvalue = 596.0"] ;
728 -> 729 ;
730 [label="squared_error = 0.0\nsamples = 1\nvalue = 597.0"] ;
728 -> 730 ;
731 [label="squared_error = 0.0\nsamples = 1\nvalue = 600.0"] ;
727 -> 731 ;
732 [label="Unnamed: 0 <= 16217.5\nsquared_error = 6.5\nsamples = 10\nvalue = 606.4"] ;
726 -> 732 ;
733 [label="Unnamed: 0 <= 15046.0\nsquared_error = 0.9\nsamples = 8\nvalue = 605.5"] ;
732 -> 733 ;
734 [label="z <= 2.6\nsquared_error = 0.1\nsamples = 6\nvalue = 604.9"] ;
733 -> 734 ;
735 [label="squared_error = 0.0\nsamples = 1\nvalue = 604.0"] ;
734 -> 735 ;
736 [label="squared_error = 0.0\nsamples = 5\nvalue = 605.0"] ;
734 -> 736 ;
737 [label="y <= 4.2\nsquared_error = 0.2\nsamples = 2\nvalue = 606.8"] ;
733 -> 737 ;
738 [label="squared_error = 0.0\nsamples = 1\nvalue = 606.0"] ;
737 -> 738 ;
739 [label="squared_error = 0.0\nsamples = 1\nvalue = 607.0"] ;
737 -> 739 ;
740 [label="y <= 4.3\nsquared_error = 0.2\nsamples = 2\nvalue = 612.5"] ;
732 -> 740 ;
741 [label="squared_error = 0.0\nsamples = 1\nvalue = 613.0"] ;
740 -> 741 ;
742 [label="squared_error = 0.0\nsamples = 1\nvalue = 612.0"] ;
740 -> 742 ;
743 [label="x <= 4.2\nsquared_error = 15.9\nsamples = 15\nvalue = 622.8"] ;
725 -> 743 ;
744 [label="Unnamed: 0 <= 19035.5\nsquared_error = 1.2\nsamples = 13\nvalue = 620.9"] ;
743 -> 744 ;
745 [label="squared_error = 0.0\nsamples = 7\nvalue = 620.0"] ;
744 -> 745 ;
746 [label="Unnamed: 0 <= 19527.5\nsquared_error = 0.1\nsamples = 6\nvalue = 622.2"] ;
744 -> 746 ;
747 [label="squared_error = 0.0\nsamples = 5\nvalue = 622.0"] ;
746 -> 747 ;
748 [label="squared_error = 0.0\nsamples = 1\nvalue = 623.0"] ;
746 -> 748 ;
749 [label="Unnamed: 0 <= 22370.5\nsquared_error = 1.7\nsamples = 2\nvalue = 630.2"] ;
743 -> 749 ;
750 [label="squared_error = 0.0\nsamples = 1\nvalue = 628.0"] ;
749 -> 750 ;
751 [label="squared_error = 0.0\nsamples = 1\nvalue = 631.0"] ;
749 -> 751 ;
752 [label="color <= 3.5\nsquared_error = 3140.8\nsamples = 44\nvalue = 670.3"] ;
698 -> 752 ;
753 [label="carat <= 0.3\nsquared_error = 10.9\nsamples = 2\nvalue = 447.7"] ;
752 -> 753 ;
754 [label="squared_error = 0.0\nsamples = 1\nvalue = 443.0"] ;
753 -> 754 ;
755 [label="squared_error = 0.0\nsamples = 1\nvalue = 450.0"] ;
753 -> 755 ;
756 [label="Unnamed: 0 <= 28596.5\nsquared_error = 892.5\nsamples = 42\nvalue = 680.6"] ;
752 -> 756 ;
757 [label="Unnamed: 0 <= 27626.5\nsquared_error = 107.1\nsamples = 15\nvalue = 649.6"] ;
756 -> 757 ;
758 [label="z <= 2.6\nsquared_error = 12.8\nsamples = 9\nvalue = 642.2"] ;
757 -> 758 ;
759 [label="Unnamed: 0 <= 26368.5\nsquared_error = 3.9\nsamples = 7\nvalue = 643.7"] ;
758 -> 759 ;
760 [label="squared_error = 0.0\nsamples = 4\nvalue = 642.0"] ;
759 -> 760 ;
761 [label="squared_error = 0.0\nsamples = 3\nvalue = 646.0"] ;
759 -> 761 ;
762 [label="depth <= 62.8\nsquared_error = 5.6\nsamples = 2\nvalue = 636.3"] ;
758 -> 762 ;
763 [label="squared_error = 0.0\nsamples = 1\nvalue = 633.0"] ;
762 -> 763 ;
764 [label="squared_error = 0.0\nsamples = 1\nvalue = 638.0"] ;
762 -> 764 ;
765 [label="Unnamed: 0 <= 28020.0\nsquared_error = 21.9\nsamples = 6\nvalue = 661.9"] ;
757 -> 765 ;
766 [label="Unnamed: 0 <= 27895.5\nsquared_error = 0.9\nsamples = 2\nvalue = 655.7"] ;
765 -> 766 ;
767 [label="squared_error = 0.0\nsamples = 1\nvalue = 655.0"] ;
766 -> 767 ;
768 [label="squared_error = 0.0\nsamples = 1\nvalue = 657.0"] ;
766 -> 768 ;
769 [label="Unnamed: 0 <= 28274.5\nsquared_error = 3.3\nsamples = 4\nvalue = 665.0"] ;
765 -> 769 ;
770 [label="depth <= 62.6\nsquared_error = 0.2\nsamples = 3\nvalue = 664.2"] ;
769 -> 770 ;
771 [label="squared_error = 0.0\nsamples = 1\nvalue = 665.0"] ;
770 -> 771 ;
772 [label="squared_error = 0.0\nsamples = 2\nvalue = 664.0"] ;
770 -> 772 ;
773 [label="squared_error = 0.0\nsamples = 1\nvalue = 669.0"] ;
769 -> 773 ;
774 [label="Unnamed: 0 <= 29991.5\nsquared_error = 462.1\nsamples = 27\nvalue = 698.7"] ;
756 -> 774 ;
775 [label="Unnamed: 0 <= 29425.0\nsquared_error = 103.1\nsamples = 21\nvalue = 689.5"] ;
774 -> 775 ;
776 [label="Unnamed: 0 <= 29010.5\nsquared_error = 6.1\nsamples = 16\nvalue = 683.8"] ;
775 -> 776 ;
777 [label="color <= 4.5\nsquared_error = 1.0\nsamples = 14\nvalue = 683.2"] ;
776 -> 777 ;
778 [label="squared_error = 0.0\nsamples = 10\nvalue = 684.0"] ;
777 -> 778 ;
779 [label="squared_error = 0.0\nsamples = 4\nvalue = 682.0"] ;
777 -> 779 ;
780 [label="color <= 5.5\nsquared_error = 9.0\nsamples = 2\nvalue = 691.0"] ;
776 -> 780 ;
781 [label="squared_error = 0.0\nsamples = 1\nvalue = 694.0"] ;
780 -> 781 ;
782 [label="squared_error = 0.0\nsamples = 1\nvalue = 688.0"] ;
780 -> 782 ;
783 [label="squared_error = 0.0\nsamples = 5\nvalue = 707.0"] ;
775 -> 783 ;
784 [label="Unnamed: 0 <= 30594.5\nsquared_error = 142.7\nsamples = 6\nvalue = 736.8"] ;
774 -> 784 ;
785 [label="Unnamed: 0 <= 30316.0\nsquared_error = 6.8\nsamples = 3\nvalue = 725.5"] ;
784 -> 785 ;
786 [label="squared_error = 0.0\nsamples = 2\nvalue = 724.0"] ;
785 -> 786 ;
787 [label="squared_error = 0.0\nsamples = 1\nvalue = 730.0"] ;
785 -> 787 ;
788 [label="table <= 58.5\nsquared_error = 25.5\nsamples = 3\nvalue = 748.0"] ;
784 -> 788 ;
789 [label="table <= 55.5\nsquared_error = 1.0\nsamples = 2\nvalue = 753.0"] ;
788 -> 789 ;
790 [label="squared_error = 0.0\nsamples = 1\nvalue = 754.0"] ;
789 -> 790 ;
791 [label="squared_error = 0.0\nsamples = 1\nvalue = 752.0"] ;
789 -> 791 ;
792 [label="squared_error = 0.0\nsamples = 1\nvalue = 743.0"] ;
788 -> 792 ;
793 [label="Unnamed: 0 <= 33302.5\nsquared_error = 1530.7\nsamples = 25\nvalue = 803.8"] ;
697 -> 793 ;
794 [label="Unnamed: 0 <= 32016.0\nsquared_error = 206.1\nsamples = 19\nvalue = 781.6"] ;
793 -> 794 ;
795 [label="Unnamed: 0 <= 31612.5\nsquared_error = 25.5\nsamples = 8\nvalue = 767.6"] ;
794 -> 795 ;
796 [label="x <= 4.3\nsquared_error = 7.0\nsamples = 4\nvalue = 763.2"] ;
795 -> 796 ;
797 [label="squared_error = 0.0\nsamples = 2\nvalue = 760.0"] ;
796 -> 797 ;
798 [label="color <= 4.0\nsquared_error = 0.2\nsamples = 2\nvalue = 765.3"] ;
796 -> 798 ;
799 [label="squared_error = 0.0\nsamples = 1\nvalue = 765.0"] ;
798 -> 799 ;
800 [label="squared_error = 0.0\nsamples = 1\nvalue = 766.0"] ;
798 -> 800 ;
801 [label="Unnamed: 0 <= 31781.0\nsquared_error = 10.9\nsamples = 4\nvalue = 771.3"] ;
795 -> 801 ;
802 [label="squared_error = 0.0\nsamples = 2\nvalue = 769.0"] ;
801 -> 802 ;
803 [label="squared_error = 0.0\nsamples = 2\nvalue = 776.0"] ;
801 -> 803 ;
804 [label="depth <= 64.0\nsquared_error = 74.4\nsamples = 11\nvalue = 792.6"] ;
794 -> 804 ;
805 [label="Unnamed: 0 <= 32447.0\nsquared_error = 22.2\nsamples = 10\nvalue = 790.5"] ;
804 -> 805 ;
806 [label="Unnamed: 0 <= 32223.5\nsquared_error = 1.0\nsamples = 7\nvalue = 788.0"] ;
805 -> 806 ;
807 [label="squared_error = 0.0\nsamples = 4\nvalue = 787.0"] ;
806 -> 807 ;
808 [label="squared_error = 0.0\nsamples = 3\nvalue = 789.0"] ;
806 -> 808 ;
809 [label="squared_error = 0.0\nsamples = 3\nvalue = 799.0"] ;
805 -> 809 ;
810 [label="squared_error = 0.0\nsamples = 1\nvalue = 819.0"] ;
804 -> 810 ;
811 [label="Unnamed: 0 <= 34305.5\nsquared_error = 541.0\nsamples = 6\nvalue = 859.2"] ;
793 -> 811 ;
812 [label="y <= 4.2\nsquared_error = 27.0\nsamples = 3\nvalue = 831.0"] ;
811 -> 812 ;
813 [label="squared_error = 0.0\nsamples = 2\nvalue = 828.0"] ;
812 -> 813 ;
814 [label="squared_error = 0.0\nsamples = 1\nvalue = 840.0"] ;
812 -> 814 ;
815 [label="squared_error = 0.0\nsamples = 3\nvalue = 878.0"] ;
811 -> 815 ;
816 [label="Unnamed: 0 <= 43917.5\nsquared_error = 819.0\nsamples = 114\nvalue = 511.3"] ;
610 -> 816 ;
817 [label="Unnamed: 0 <= 34949.5\nsquared_error = 402.6\nsamples = 59\nvalue = 489.7"] ;
816 -> 817 ;
818 [label="squared_error = 0.0\nsamples = 1\nvalue = 378.0"] ;
817 -> 818 ;
819 [label="Unnamed: 0 <= 40113.0\nsquared_error = 137.1\nsamples = 58\nvalue = 492.1"] ;
817 -> 819 ;
820 [label="Unnamed: 0 <= 37120.0\nsquared_error = 27.5\nsamples = 30\nvalue = 482.1"] ;
819 -> 820 ;
821 [label="Unnamed: 0 <= 35466.5\nsquared_error = 8.7\nsamples = 12\nvalue = 477.0"] ;
820 -> 821 ;
822 [label="carat <= 0.2\nsquared_error = 0.2\nsamples = 2\nvalue = 471.2"] ;
821 -> 822 ;
823 [label="squared_error = 0.0\nsamples = 1\nvalue = 472.0"] ;
822 -> 823 ;
824 [label="squared_error = 0.0\nsamples = 1\nvalue = 471.0"] ;
822 -> 824 ;
825 [label="z <= 2.5\nsquared_error = 1.4\nsamples = 10\nvalue = 478.3"] ;
821 -> 825 ;
826 [label="y <= 4.2\nsquared_error = 0.5\nsamples = 8\nvalue = 477.7"] ;
825 -> 826 ;
827 [label="squared_error = 0.0\nsamples = 7\nvalue = 478.0"] ;
826 -> 827 ;
828 [label="squared_error = 0.0\nsamples = 1\nvalue = 476.0"] ;
826 -> 828 ;
829 [label="squared_error = 0.0\nsamples = 2\nvalue = 480.0"] ;
825 -> 829 ;
830 [label="Unnamed: 0 <= 38938.5\nsquared_error = 5.8\nsamples = 18\nvalue = 486.1"] ;
820 -> 830 ;
831 [label="x <= 4.1\nsquared_error = 0.1\nsamples = 15\nvalue = 485.2"] ;
830 -> 831 ;
832 [label="squared_error = 0.0\nsamples = 12\nvalue = 485.0"] ;
831 -> 832 ;
833 [label="squared_error = 0.0\nsamples = 3\nvalue = 486.0"] ;
831 -> 833 ;
834 [label="squared_error = 0.0\nsamples = 3\nvalue = 492.0"] ;
830 -> 834 ;
835 [label="Unnamed: 0 <= 41109.5\nsquared_error = 14.7\nsamples = 28\nvalue = 503.7"] ;
819 -> 835 ;
836 [label="cut <= 4.0\nsquared_error = 4.5\nsamples = 4\nvalue = 496.4"] ;
835 -> 836 ;
837 [label="squared_error = 0.0\nsamples = 1\nvalue = 500.0"] ;
836 -> 837 ;
838 [label="z <= 2.6\nsquared_error = 0.1\nsamples = 3\nvalue = 495.2"] ;
836 -> 838 ;
839 [label="squared_error = 0.0\nsamples = 1\nvalue = 496.0"] ;
838 -> 839 ;
840 [label="squared_error = 0.0\nsamples = 2\nvalue = 495.0"] ;
838 -> 840 ;
841 [label="Unnamed: 0 <= 43113.0\nsquared_error = 2.0\nsamples = 24\nvalue = 505.4"] ;
835 -> 841 ;
842 [label="z <= 2.5\nsquared_error = 0.1\nsamples = 21\nvalue = 504.9"] ;
841 -> 842 ;
843 [label="z <= 2.5\nsquared_error = 0.0\nsamples = 19\nvalue = 505.0"] ;
842 -> 843 ;
844 [label="squared_error = 0.0\nsamples = 18\nvalue = 505.0"] ;
843 -> 844 ;
845 [label="squared_error = 0.0\nsamples = 1\nvalue = 506.0"] ;
843 -> 845 ;
846 [label="squared_error = 0.0\nsamples = 2\nvalue = 504.0"] ;
842 -> 846 ;
847 [label="carat <= 0.3\nsquared_error = 3.7\nsamples = 3\nvalue = 508.8"] ;
841 -> 847 ;
848 [label="squared_error = 0.0\nsamples = 1\nvalue = 512.0"] ;
847 -> 848 ;
849 [label="z <= 2.6\nsquared_error = 0.2\nsamples = 2\nvalue = 507.7"] ;
847 -> 849 ;
850 [label="squared_error = 0.0\nsamples = 1\nvalue = 508.0"] ;
849 -> 850 ;
851 [label="squared_error = 0.0\nsamples = 1\nvalue = 507.0"] ;
849 -> 851 ;
852 [label="Unnamed: 0 <= 48815.5\nsquared_error = 121.5\nsamples = 55\nvalue = 536.6"] ;
816 -> 852 ;
853 [label="Unnamed: 0 <= 46469.0\nsquared_error = 16.0\nsamples = 30\nvalue = 527.2"] ;
852 -> 853 ;
854 [label="Unnamed: 0 <= 44132.5\nsquared_error = 7.6\nsamples = 12\nvalue = 523.8"] ;
853 -> 854 ;
855 [label="squared_error = 0.0\nsamples = 1\nvalue = 514.0"] ;
854 -> 855 ;
856 [label="Unnamed: 0 <= 45153.0\nsquared_error = 3.0\nsamples = 11\nvalue = 524.2"] ;
854 -> 856 ;
857 [label="z <= 2.4\nsquared_error = 0.3\nsamples = 6\nvalue = 522.0"] ;
856 -> 857 ;
858 [label="squared_error = 0.0\nsamples = 1\nvalue = 521.0"] ;
857 -> 858 ;
859 [label="x <= 4.1\nsquared_error = 0.1\nsamples = 5\nvalue = 522.2"] ;
857 -> 859 ;
860 [label="squared_error = 0.0\nsamples = 1\nvalue = 523.0"] ;
859 -> 860 ;
861 [label="squared_error = 0.0\nsamples = 4\nvalue = 522.0"] ;
859 -> 861 ;
862 [label="Unnamed: 0 <= 45651.0\nsquared_error = 0.2\nsamples = 5\nvalue = 525.5"] ;
856 -> 862 ;
863 [label="squared_error = 0.0\nsamples = 3\nvalue = 525.0"] ;
862 -> 863 ;
864 [label="squared_error = 0.0\nsamples = 2\nvalue = 526.0"] ;
862 -> 864 ;
865 [label="Unnamed: 0 <= 47825.5\nsquared_error = 2.3\nsamples = 18\nvalue = 530.4"] ;
853 -> 865 ;
866 [label="squared_error = 0.0\nsamples = 16\nvalue = 530.0"] ;
865 -> 866 ;
867 [label="carat <= 0.2\nsquared_error = 4.0\nsamples = 2\nvalue = 535.0"] ;
865 -> 867 ;
868 [label="squared_error = 0.0\nsamples = 1\nvalue = 537.0"] ;
867 -> 868 ;
869 [label="squared_error = 0.0\nsamples = 1\nvalue = 533.0"] ;
867 -> 869 ;
870 [label="Unnamed: 0 <= 51142.0\nsquared_error = 20.3\nsamples = 25\nvalue = 547.7"] ;
852 -> 870 ;
871 [label="Unnamed: 0 <= 49145.5\nsquared_error = 2.9\nsamples = 6\nvalue = 540.4"] ;
870 -> 871 ;
872 [label="squared_error = 0.0\nsamples = 2\nvalue = 538.0"] ;
871 -> 872 ;
873 [label="color <= 5.5\nsquared_error = 1.6\nsamples = 4\nvalue = 541.1"] ;
871 -> 873 ;
874 [label="Unnamed: 0 <= 49641.0\nsquared_error = 0.2\nsamples = 3\nvalue = 540.7"] ;
873 -> 874 ;
875 [label="squared_error = 0.0\nsamples = 1\nvalue = 540.0"] ;
874 -> 875 ;
876 [label="squared_error = 0.0\nsamples = 2\nvalue = 541.0"] ;
874 -> 876 ;
877 [label="squared_error = 0.0\nsamples = 1\nvalue = 544.0"] ;
873 -> 877 ;
878 [label="Unnamed: 0 <= 52310.5\nsquared_error = 3.7\nsamples = 19\nvalue = 550.0"] ;
870 -> 878 ;
879 [label="squared_error = 0.0\nsamples = 8\nvalue = 548.0"] ;
878 -> 879 ;
880 [label="depth <= 58.3\nsquared_error = 0.5\nsamples = 11\nvalue = 551.7"] ;
878 -> 880 ;
881 [label="squared_error = 0.0\nsamples = 1\nvalue = 550.0"] ;
880 -> 881 ;
882 [label="squared_error = 0.0\nsamples = 10\nvalue = 552.0"] ;
880 -> 882 ;
883 [label="clarity <= 5.5\nsquared_error = 24399.4\nsamples = 3558\nvalue = 684.9"] ;
5 -> 883 ;
884 [label="color <= 4.5\nsquared_error = 12087.8\nsamples = 1026\nvalue = 575.0"] ;
883 -> 884 ;
885 [label="x <= 4.4\nsquared_error = 5709.1\nsamples = 375\nvalue = 502.5"] ;
884 -> 885 ;
886 [label="y <= 4.3\nsquared_error = 3669.5\nsamples = 198\nvalue = 469.8"] ;
885 -> 886 ;
887 [label="Unnamed: 0 <= 20010.5\nsquared_error = 1396.7\nsamples = 30\nvalue = 540.6"] ;
886 -> 887 ;
888 [label="y <= 4.3\nsquared_error = 210.6\nsamples = 10\nvalue = 578.3"] ;
887 -> 888 ;
889 [label="Unnamed: 0 <= 3070.5\nsquared_error = 79.4\nsamples = 6\nvalue = 566.8"] ;
888 -> 889 ;
890 [label="x <= 4.3\nsquared_error = 4.0\nsamples = 2\nvalue = 556.0"] ;
889 -> 890 ;
891 [label="squared_error = 0.0\nsamples = 1\nvalue = 554.0"] ;
890 -> 891 ;
892 [label="squared_error = 0.0\nsamples = 1\nvalue = 558.0"] ;
890 -> 892 ;
893 [label="squared_error = 0.0\nsamples = 4\nvalue = 574.0"] ;
889 -> 893 ;
894 [label="table <= 56.5\nsquared_error = 0.4\nsamples = 4\nvalue = 592.8"] ;
888 -> 894 ;
895 [label="squared_error = 0.0\nsamples = 1\nvalue = 591.0"] ;
894 -> 895 ;
896 [label="squared_error = 0.0\nsamples = 3\nvalue = 593.0"] ;
894 -> 896 ;
897 [label="Unnamed: 0 <= 43799.5\nsquared_error = 698.7\nsamples = 20\nvalue = 517.1"] ;
887 -> 897 ;
898 [label="Unnamed: 0 <= 34782.5\nsquared_error = 462.5\nsamples = 9\nvalue = 495.1"] ;
897 -> 898 ;
899 [label="color <= 1.5\nsquared_error = 30.2\nsamples = 2\nvalue = 444.5"] ;
898 -> 899 ;
900 [label="squared_error = 0.0\nsamples = 1\nvalue = 439.0"] ;
899 -> 900 ;
901 [label="squared_error = 0.0\nsamples = 1\nvalue = 450.0"] ;
899 -> 901 ;
902 [label="Unnamed: 0 <= 41771.0\nsquared_error = 37.2\nsamples = 7\nvalue = 503.5"] ;
898 -> 902 ;
903 [label="depth <= 62.9\nsquared_error = 36.0\nsamples = 2\nvalue = 491.0"] ;
902 -> 903 ;
904 [label="squared_error = 0.0\nsamples = 1\nvalue = 497.0"] ;
903 -> 904 ;
905 [label="squared_error = 0.0\nsamples = 1\nvalue = 485.0"] ;
903 -> 905 ;
906 [label="squared_error = 0.0\nsamples = 5\nvalue = 506.0"] ;
902 -> 906 ;
907 [label="Unnamed: 0 <= 46812.5\nsquared_error = 40.5\nsamples = 11\nvalue = 537.7"] ;
897 -> 907 ;
908 [label="y <= 4.3\nsquared_error = 1.0\nsamples = 2\nvalue = 522.0"] ;
907 -> 908 ;
909 [label="squared_error = 0.0\nsamples = 1\nvalue = 521.0"] ;
908 -> 909 ;
910 [label="squared_error = 0.0\nsamples = 1\nvalue = 523.0"] ;
908 -> 910 ;
911 [label="Unnamed: 0 <= 50962.5\nsquared_error = 2.6\nsamples = 9\nvalue = 540.2"] ;
907 -> 911 ;
912 [label="cut <= 4.5\nsquared_error = 0.7\nsamples = 8\nvalue = 539.8"] ;
911 -> 912 ;
913 [label="squared_error = 0.0\nsamples = 7\nvalue = 540.0"] ;
912 -> 913 ;
914 [label="squared_error = 0.0\nsamples = 1\nvalue = 537.0"] ;
912 -> 914 ;
915 [label="squared_error = 0.0\nsamples = 1\nvalue = 545.0"] ;
911 -> 915 ;
916 [label="x <= 4.4\nsquared_error = 3046.0\nsamples = 168\nvalue = 457.5"] ;
886 -> 916 ;
917 [label="color <= 2.5\nsquared_error = 2241.4\nsamples = 125\nvalue = 444.9"] ;
916 -> 917 ;
918 [label="x <= 4.3\nsquared_error = 1755.9\nsamples = 39\nvalue = 413.9"] ;
917 -> 918 ;
919 [label="Unnamed: 0 <= 25811.5\nsquared_error = 538.3\nsamples = 20\nvalue = 387.7"] ;
918 -> 919 ;
920 [label="Unnamed: 0 <= 36.5\nsquared_error = 299.7\nsamples = 11\nvalue = 407.3"] ;
919 -> 920 ;
921 [label="squared_error = 0.0\nsamples = 1\nvalue = 348.0"] ;
920 -> 921 ;
922 [label="Unnamed: 0 <= 8372.5\nsquared_error = 51.7\nsamples = 10\nvalue = 411.6"] ;
920 -> 922 ;
923 [label="Unnamed: 0 <= 3371.0\nsquared_error = 2.2\nsamples = 6\nvalue = 406.3"] ;
922 -> 923 ;
924 [label="squared_error = 0.0\nsamples = 3\nvalue = 405.0"] ;
923 -> 924 ;
925 [label="squared_error = 0.0\nsamples = 3\nvalue = 408.0"] ;
923 -> 925 ;
926 [label="table <= 59.0\nsquared_error = 2.4\nsamples = 4\nvalue = 421.0"] ;
922 -> 926 ;
927 [label="y <= 4.3\nsquared_error = 0.2\nsamples = 3\nvalue = 421.8"] ;
926 -> 927 ;
928 [label="squared_error = 0.0\nsamples = 2\nvalue = 422.0"] ;
927 -> 928 ;
929 [label="squared_error = 0.0\nsamples = 1\nvalue = 421.0"] ;
927 -> 929 ;
930 [label="squared_error = 0.0\nsamples = 1\nvalue = 418.0"] ;
926 -> 930 ;
931 [label="Unnamed: 0 <= 36595.0\nsquared_error = 109.9\nsamples = 9\nvalue = 370.4"] ;
919 -> 931 ;
932 [label="Unnamed: 0 <= 29953.5\nsquared_error = 26.7\nsamples = 6\nvalue = 366.2"] ;
931 -> 932 ;
933 [label="depth <= 62.0\nsquared_error = 7.4\nsamples = 4\nvalue = 363.3"] ;
932 -> 933 ;
934 [label="squared_error = 0.0\nsamples = 1\nvalue = 367.0"] ;
933 -> 934 ;
935 [label="depth <= 62.4\nsquared_error = 2.2\nsamples = 3\nvalue = 361.7"] ;
933 -> 935 ;
936 [label="squared_error = 0.0\nsamples = 1\nvalue = 360.0"] ;
935 -> 936 ;
937 [label="squared_error = 0.0\nsamples = 2\nvalue = 363.0"] ;
935 -> 937 ;
938 [label="z <= 2.7\nsquared_error = 0.8\nsamples = 2\nvalue = 373.5"] ;
932 -> 938 ;
939 [label="squared_error = 0.0\nsamples = 1\nvalue = 372.0"] ;
938 -> 939 ;
940 [label="squared_error = 0.0\nsamples = 1\nvalue = 374.0"] ;
938 -> 940 ;
941 [label="Unnamed: 0 <= 41128.0\nsquared_error = 32.0\nsamples = 3\nvalue = 390.0"] ;
931 -> 941 ;
942 [label="squared_error = 0.0\nsamples = 1\nvalue = 382.0"] ;
941 -> 942 ;
943 [label="squared_error = 0.0\nsamples = 2\nvalue = 394.0"] ;
941 -> 943 ;
944 [label="y <= 4.3\nsquared_error = 1631.1\nsamples = 19\nvalue = 439.2"] ;
918 -> 944 ;
945 [label="color <= 1.5\nsquared_error = 119.4\nsamples = 4\nvalue = 504.9"] ;
944 -> 945 ;
946 [label="squared_error = 0.0\nsamples = 1\nvalue = 480.0"] ;
945 -> 946 ;
947 [label="depth <= 62.5\nsquared_error = 35.4\nsamples = 3\nvalue = 508.4"] ;
945 -> 947 ;
948 [label="squared_error = 0.0\nsamples = 2\nvalue = 506.0"] ;
947 -> 948 ;
949 [label="squared_error = 0.0\nsamples = 1\nvalue = 523.0"] ;
947 -> 949 ;
950 [label="Unnamed: 0 <= 32276.5\nsquared_error = 293.7\nsamples = 15\nvalue = 418.2"] ;
944 -> 950 ;
951 [label="Unnamed: 0 <= 24162.0\nsquared_error = 126.6\nsamples = 12\nvalue = 424.0"] ;
950 -> 951 ;
952 [label="Unnamed: 0 <= 8357.5\nsquared_error = 23.4\nsamples = 6\nvalue = 413.9"] ;
951 -> 952 ;
953 [label="squared_error = 0.0\nsamples = 2\nvalue = 408.0"] ;
952 -> 953 ;
954 [label="Unnamed: 0 <= 10036.0\nsquared_error = 5.3\nsamples = 4\nvalue = 417.3"] ;
952 -> 954 ;
955 [label="squared_error = 0.0\nsamples = 1\nvalue = 414.0"] ;
954 -> 955 ;
956 [label="depth <= 61.9\nsquared_error = 1.4\nsamples = 3\nvalue = 418.6"] ;
954 -> 956 ;
957 [label="squared_error = 0.0\nsamples = 1\nvalue = 421.0"] ;
956 -> 957 ;
958 [label="squared_error = 0.0\nsamples = 2\nvalue = 418.0"] ;
956 -> 958 ;
959 [label="Unnamed: 0 <= 28801.5\nsquared_error = 4.9\nsamples = 6\nvalue = 435.1"] ;
951 -> 959 ;
960 [label="squared_error = 0.0\nsamples = 2\nvalue = 432.0"] ;
959 -> 960 ;
961 [label="carat <= 0.3\nsquared_error = 1.1\nsamples = 4\nvalue = 436.4"] ;
959 -> 961 ;
962 [label="squared_error = 0.0\nsamples = 1\nvalue = 439.0"] ;
961 -> 962 ;
963 [label="squared_error = 0.0\nsamples = 3\nvalue = 436.0"] ;
961 -> 963 ;
964 [label="Unnamed: 0 <= 38261.5\nsquared_error = 67.2\nsamples = 3\nvalue = 387.8"] ;
950 -> 964 ;
965 [label="squared_error = 0.0\nsamples = 1\nvalue = 374.0"] ;
964 -> 965 ;
966 [label="Unnamed: 0 <= 44445.0\nsquared_error = 5.6\nsamples = 2\nvalue = 392.3"] ;
964 -> 966 ;
967 [label="squared_error = 0.0\nsamples = 1\nvalue = 389.0"] ;
966 -> 967 ;
968 [label="squared_error = 0.0\nsamples = 1\nvalue = 394.0"] ;
966 -> 968 ;
969 [label="Unnamed: 0 <= 35117.0\nsquared_error = 1818.3\nsamples = 86\nvalue = 459.1"] ;
917 -> 969 ;
970 [label="clarity <= 4.5\nsquared_error = 1751.0\nsamples = 67\nvalue = 448.5"] ;
969 -> 970 ;
971 [label="Unnamed: 0 <= 6709.0\nsquared_error = 84.2\nsamples = 12\nvalue = 413.7"] ;
970 -> 971 ;
972 [label="x <= 4.3\nsquared_error = 4.8\nsamples = 5\nvalue = 405.1"] ;
971 -> 972 ;
973 [label="squared_error = 0.0\nsamples = 2\nvalue = 408.0"] ;
972 -> 973 ;
974 [label="cut <= 3.5\nsquared_error = 0.9\nsamples = 3\nvalue = 403.7"] ;
972 -> 974 ;
975 [label="squared_error = 0.0\nsamples = 2\nvalue = 403.0"] ;
974 -> 975 ;
976 [label="squared_error = 0.0\nsamples = 1\nvalue = 405.0"] ;
974 -> 976 ;
977 [label="Unnamed: 0 <= 25022.5\nsquared_error = 15.3\nsamples = 7\nvalue = 422.3"] ;
971 -> 977 ;
978 [label="depth <= 63.5\nsquared_error = 3.4\nsamples = 6\nvalue = 420.4"] ;
977 -> 978 ;
979 [label="Unnamed: 0 <= 21689.5\nsquared_error = 0.1\nsamples = 5\nvalue = 421.2"] ;
978 -> 979 ;
980 [label="squared_error = 0.0\nsamples = 4\nvalue = 421.0"] ;
979 -> 980 ;
981 [label="squared_error = 0.0\nsamples = 1\nvalue = 422.0"] ;
979 -> 981 ;
982 [label="squared_error = 0.0\nsamples = 1\nvalue = 416.0"] ;
978 -> 982 ;
983 [label="squared_error = 0.0\nsamples = 1\nvalue = 429.0"] ;
977 -> 983 ;
984 [label="Unnamed: 0 <= 13705.5\nsquared_error = 1794.6\nsamples = 55\nvalue = 455.4"] ;
970 -> 984 ;
985 [label="depth <= 62.7\nsquared_error = 7040.9\nsamples = 9\nvalue = 497.2"] ;
984 -> 985 ;
986 [label="depth <= 60.4\nsquared_error = 3000.1\nsamples = 7\nvalue = 554.1"] ;
985 -> 986 ;
987 [label="squared_error = 0.0\nsamples = 1\nvalue = 413.0"] ;
986 -> 987 ;
988 [label="Unnamed: 0 <= 7722.5\nsquared_error = 177.1\nsamples = 6\nvalue = 574.3"] ;
986 -> 988 ;
989 [label="Unnamed: 0 <= 2899.5\nsquared_error = 51.8\nsamples = 4\nvalue = 566.8"] ;
988 -> 989 ;
990 [label="squared_error = 0.0\nsamples = 1\nvalue = 558.0"] ;
989 -> 990 ;
991 [label="cut <= 4.5\nsquared_error = 0.2\nsamples = 3\nvalue = 572.7"] ;
989 -> 991 ;
992 [label="squared_error = 0.0\nsamples = 2\nvalue = 573.0"] ;
991 -> 992 ;
993 [label="squared_error = 0.0\nsamples = 1\nvalue = 572.0"] ;
991 -> 993 ;
994 [label="squared_error = 0.0\nsamples = 2\nvalue = 593.0"] ;
988 -> 994 ;
995 [label="x <= 4.3\nsquared_error = 4.0\nsamples = 2\nvalue = 406.0"] ;
985 -> 995 ;
996 [label="squared_error = 0.0\nsamples = 1\nvalue = 407.0"] ;
995 -> 996 ;
997 [label="squared_error = 0.0\nsamples = 1\nvalue = 402.0"] ;
995 -> 997 ;
998 [label="Unnamed: 0 <= 32300.5\nsquared_error = 565.1\nsamples = 46\nvalue = 448.4"] ;
984 -> 998 ;
999 [label="carat <= 0.3\nsquared_error = 697.0\nsamples = 31\nvalue = 441.1"] ;
998 -> 999 ;
1000 [label="Unnamed: 0 <= 29300.0\nsquared_error = 114.6\nsamples = 28\nvalue = 437.2"] ;
999 -> 1000 ;
1001 [label="Unnamed: 0 <= 25644.5\nsquared_error = 40.8\nsamples = 14\nvalue = 428.1"] ;
1000 -> 1001 ;
1002 [label="squared_error = 0.0\nsamples = 6\nvalue = 421.0"] ;
1001 -> 1002 ;
1003 [label="Unnamed: 0 <= 28635.0\nsquared_error = 2.5\nsamples = 8\nvalue = 433.6"] ;
1001 -> 1003 ;
1004 [label="depth <= 62.4\nsquared_error = 0.1\nsamples = 4\nvalue = 431.8"] ;
1003 -> 1004 ;
1005 [label="squared_error = 0.0\nsamples = 3\nvalue = 432.0"] ;
1004 -> 1005 ;
1006 [label="squared_error = 0.0\nsamples = 1\nvalue = 431.0"] ;
1004 -> 1006 ;
1007 [label="squared_error = 0.0\nsamples = 4\nvalue = 435.0"] ;
1003 -> 1007 ;
1008 [label="Unnamed: 0 <= 31119.5\nsquared_error = 4.2\nsamples = 14\nvalue = 447.2"] ;
1000 -> 1008 ;
1009 [label="Unnamed: 0 <= 29795.5\nsquared_error = 1.9\nsamples = 8\nvalue = 446.2"] ;
1008 -> 1009 ;
1010 [label="squared_error = 0.0\nsamples = 1\nvalue = 441.0"] ;
1009 -> 1010 ;
1011 [label="Unnamed: 0 <= 30284.5\nsquared_error = 0.2\nsamples = 7\nvalue = 446.6"] ;
1009 -> 1011 ;
1012 [label="squared_error = 0.0\nsamples = 4\nvalue = 446.0"] ;
1011 -> 1012 ;
1013 [label="squared_error = 0.0\nsamples = 3\nvalue = 447.0"] ;
1011 -> 1013 ;
1014 [label="squared_error = 0.0\nsamples = 6\nvalue = 450.0"] ;
1008 -> 1014 ;
1015 [label="color <= 3.5\nsquared_error = 5904.2\nsamples = 3\nvalue = 503.3"] ;
999 -> 1015 ;
1016 [label="squared_error = 0.0\nsamples = 2\nvalue = 449.0"] ;
1015 -> 1016 ;
1017 [label="squared_error = 0.0\nsamples = 1\nvalue = 612.0"] ;
1015 -> 1017 ;
1018 [label="Unnamed: 0 <= 33781.0\nsquared_error = 2.9\nsamples = 15\nvalue = 462.5"] ;
998 -> 1018 ;
1019 [label="color <= 3.5\nsquared_error = 0.2\nsamples = 10\nvalue = 461.8"] ;
1018 -> 1019 ;
1020 [label="squared_error = 0.0\nsamples = 3\nvalue = 461.0"] ;
1019 -> 1020 ;
1021 [label="squared_error = 0.0\nsamples = 7\nvalue = 462.0"] ;
1019 -> 1021 ;
1022 [label="color <= 3.5\nsquared_error = 3.1\nsamples = 5\nvalue = 465.2"] ;
1018 -> 1022 ;
1023 [label="x <= 4.3\nsquared_error = 0.2\nsamples = 4\nvalue = 464.4"] ;
1022 -> 1023 ;
1024 [label="squared_error = 0.0\nsamples = 2\nvalue = 465.0"] ;
1023 -> 1024 ;
1025 [label="squared_error = 0.0\nsamples = 2\nvalue = 464.0"] ;
1023 -> 1025 ;
1026 [label="squared_error = 0.0\nsamples = 1\nvalue = 469.0"] ;
1022 -> 1026 ;
1027 [label="Unnamed: 0 <= 40955.0\nsquared_error = 444.1\nsamples = 19\nvalue = 494.1"] ;
969 -> 1027 ;
1028 [label="Unnamed: 0 <= 37451.5\nsquared_error = 39.9\nsamples = 13\nvalue = 480.6"] ;
1027 -> 1028 ;
1029 [label="color <= 3.5\nsquared_error = 0.2\nsamples = 8\nvalue = 476.9"] ;
1028 -> 1029 ;
1030 [label="squared_error = 0.0\nsamples = 1\nvalue = 475.0"] ;
1029 -> 1030 ;
1031 [label="squared_error = 0.0\nsamples = 7\nvalue = 477.0"] ;
1029 -> 1031 ;
1032 [label="Unnamed: 0 <= 38950.5\nsquared_error = 7.2\nsamples = 5\nvalue = 490.7"] ;
1028 -> 1032 ;
1033 [label="squared_error = 0.0\nsamples = 2\nvalue = 487.0"] ;
1032 -> 1033 ;
1034 [label="y <= 4.4\nsquared_error = 0.8\nsamples = 3\nvalue = 492.5"] ;
1032 -> 1034 ;
1035 [label="squared_error = 0.0\nsamples = 2\nvalue = 493.0"] ;
1034 -> 1035 ;
1036 [label="squared_error = 0.0\nsamples = 1\nvalue = 491.0"] ;
1034 -> 1036 ;
1037 [label="Unnamed: 0 <= 47301.5\nsquared_error = 166.5\nsamples = 6\nvalue = 521.0"] ;
1027 -> 1037 ;
1038 [label="carat <= 0.3\nsquared_error = 42.9\nsamples = 4\nvalue = 513.9"] ;
1037 -> 1038 ;
1039 [label="clarity <= 4.5\nsquared_error = 18.0\nsamples = 2\nvalue = 517.0"] ;
1038 -> 1039 ;
1040 [label="squared_error = 0.0\nsamples = 1\nvalue = 523.0"] ;
1039 -> 1040 ;
1041 [label="squared_error = 0.0\nsamples = 1\nvalue = 514.0"] ;
1039 -> 1041 ;
1042 [label="clarity <= 4.5\nsquared_error = 0.2\nsamples = 2\nvalue = 504.5"] ;
1038 -> 1042 ;
1043 [label="squared_error = 0.0\nsamples = 1\nvalue = 504.0"] ;
1042 -> 1043 ;
1044 [label="squared_error = 0.0\nsamples = 1\nvalue = 505.0"] ;
1042 -> 1044 ;
1045 [label="squared_error = 0.0\nsamples = 2\nvalue = 540.0"] ;
1037 -> 1045 ;
1046 [label="y <= 4.4\nsquared_error = 3493.1\nsamples = 43\nvalue = 497.1"] ;
916 -> 1046 ;
1047 [label="Unnamed: 0 <= 25828.0\nsquared_error = 1361.5\nsamples = 22\nvalue = 537.0"] ;
1046 -> 1047 ;
1048 [label="Unnamed: 0 <= 8218.5\nsquared_error = 297.7\nsamples = 10\nvalue = 577.0"] ;
1047 -> 1048 ;
1049 [label="Unnamed: 0 <= 2560.5\nsquared_error = 101.4\nsamples = 6\nvalue = 566.9"] ;
1048 -> 1049 ;
1050 [label="squared_error = 0.0\nsamples = 2\nvalue = 554.0"] ;
1049 -> 1050 ;
1051 [label="Unnamed: 0 <= 5712.0\nsquared_error = 3.0\nsamples = 4\nvalue = 574.6"] ;
1049 -> 1051 ;
1052 [label="y <= 4.3\nsquared_error = 0.2\nsamples = 2\nvalue = 572.5"] ;
1051 -> 1052 ;
1053 [label="squared_error = 0.0\nsamples = 1\nvalue = 573.0"] ;
1052 -> 1053 ;
1054 [label="squared_error = 0.0\nsamples = 1\nvalue = 572.0"] ;
1052 -> 1054 ;
1055 [label="squared_error = 0.0\nsamples = 2\nvalue = 576.0"] ;
1051 -> 1055 ;
1056 [label="color <= 3.5\nsquared_error = 75.2\nsamples = 4\nvalue = 597.2"] ;
1048 -> 1056 ;
1057 [label="depth <= 62.5\nsquared_error = 3.6\nsamples = 3\nvalue = 592.3"] ;
1056 -> 1057 ;
1058 [label="squared_error = 0.0\nsamples = 1\nvalue = 595.0"] ;
1057 -> 1058 ;
1059 [label="squared_error = 0.0\nsamples = 2\nvalue = 591.0"] ;
1057 -> 1059 ;
1060 [label="squared_error = 0.0\nsamples = 1\nvalue = 612.0"] ;
1056 -> 1060 ;
1061 [label="Unnamed: 0 <= 42282.0\nsquared_error = 534.9\nsamples = 12\nvalue = 514.2"] ;
1047 -> 1061 ;
1062 [label="depth <= 64.0\nsquared_error = 129.6\nsamples = 3\nvalue = 485.1"] ;
1061 -> 1062 ;
1063 [label="z <= 2.7\nsquared_error = 42.2\nsamples = 2\nvalue = 476.2"] ;
1062 -> 1063 ;
1064 [label="squared_error = 0.0\nsamples = 1\nvalue = 465.0"] ;
1063 -> 1064 ;
1065 [label="squared_error = 0.0\nsamples = 1\nvalue = 480.0"] ;
1063 -> 1065 ;
1066 [label="squared_error = 0.0\nsamples = 1\nvalue = 497.0"] ;
1062 -> 1066 ;
1067 [label="Unnamed: 0 <= 46812.0\nsquared_error = 104.8\nsamples = 9\nvalue = 528.7"] ;
1061 -> 1067 ;
1068 [label="carat <= 0.3\nsquared_error = 7.3\nsamples = 4\nvalue = 518.7"] ;
1067 -> 1068 ;
1069 [label="squared_error = 0.0\nsamples = 2\nvalue = 523.0"] ;
1068 -> 1069 ;
1070 [label="squared_error = 0.0\nsamples = 2\nvalue = 517.0"] ;
1068 -> 1070 ;
1071 [label="color <= 2.5\nsquared_error = 2.2\nsamples = 5\nvalue = 538.7"] ;
1067 -> 1071 ;
1072 [label="squared_error = 0.0\nsamples = 2\nvalue = 537.0"] ;
1071 -> 1072 ;
1073 [label="squared_error = 0.0\nsamples = 3\nvalue = 540.0"] ;
1071 -> 1073 ;
1074 [label="color <= 2.5\nsquared_error = 2429.6\nsamples = 21\nvalue = 457.1"] ;
1046 -> 1074 ;
1075 [label="Unnamed: 0 <= 33772.5\nsquared_error = 273.6\nsamples = 7\nvalue = 420.3"] ;
1074 -> 1075 ;
1076 [label="Unnamed: 0 <= 24653.0\nsquared_error = 67.5\nsamples = 6\nvalue = 425.5"] ;
1075 -> 1076 ;
1077 [label="Unnamed: 0 <= 15031.5\nsquared_error = 2.2\nsamples = 3\nvalue = 419.2"] ;
1076 -> 1077 ;
1078 [label="squared_error = 0.0\nsamples = 2\nvalue = 418.0"] ;
1077 -> 1078 ;
1079 [label="squared_error = 0.0\nsamples = 1\nvalue = 421.0"] ;
1077 -> 1079 ;
1080 [label="squared_error = 0.0\nsamples = 3\nvalue = 436.0"] ;
1076 -> 1080 ;
1081 [label="squared_error = 0.0\nsamples = 1\nvalue = 379.0"] ;
1075 -> 1081 ;
1082 [label="Unnamed: 0 <= 25013.0\nsquared_error = 2541.4\nsamples = 14\nvalue = 470.9"] ;
1074 -> 1082 ;
1083 [label="squared_error = 0.0\nsamples = 1\nvalue = 627.0"] ;
1082 -> 1083 ;
1084 [label="Unnamed: 0 <= 31958.0\nsquared_error = 355.1\nsamples = 13\nvalue = 456.7"] ;
1082 -> 1084 ;
1085 [label="Unnamed: 0 <= 29622.0\nsquared_error = 38.1\nsamples = 6\nvalue = 442.4"] ;
1084 -> 1085 ;
1086 [label="clarity <= 4.5\nsquared_error = 4.0\nsamples = 2\nvalue = 434.0"] ;
1085 -> 1086 ;
1087 [label="squared_error = 0.0\nsamples = 1\nvalue = 436.0"] ;
1086 -> 1087 ;
1088 [label="squared_error = 0.0\nsamples = 1\nvalue = 432.0"] ;
1086 -> 1088 ;
1089 [label="Unnamed: 0 <= 30456.0\nsquared_error = 2.0\nsamples = 4\nvalue = 446.6"] ;
1085 -> 1089 ;
1090 [label="depth <= 62.1\nsquared_error = 0.1\nsamples = 3\nvalue = 445.8"] ;
1089 -> 1090 ;
1091 [label="squared_error = 0.0\nsamples = 2\nvalue = 446.0"] ;
1090 -> 1091 ;
1092 [label="squared_error = 0.0\nsamples = 1\nvalue = 445.0"] ;
1090 -> 1092 ;
1093 [label="squared_error = 0.0\nsamples = 1\nvalue = 449.0"] ;
1089 -> 1093 ;
1094 [label="Unnamed: 0 <= 35116.5\nsquared_error = 198.4\nsamples = 7\nvalue = 473.8"] ;
1084 -> 1094 ;
1095 [label="y <= 4.4\nsquared_error = 1.8\nsamples = 4\nvalue = 462.4"] ;
1094 -> 1095 ;
1096 [label="depth <= 61.9\nsquared_error = 0.2\nsamples = 3\nvalue = 461.3"] ;
1095 -> 1096 ;
1097 [label="squared_error = 0.0\nsamples = 1\nvalue = 462.0"] ;
1096 -> 1097 ;
1098 [label="squared_error = 0.0\nsamples = 2\nvalue = 461.0"] ;
1096 -> 1098 ;
1099 [label="squared_error = 0.0\nsamples = 1\nvalue = 464.0"] ;
1095 -> 1099 ;
1100 [label="z <= 2.7\nsquared_error = 135.0\nsamples = 3\nvalue = 485.2"] ;
1094 -> 1100 ;
1101 [label="cut <= 4.0\nsquared_error = 6.2\nsamples = 2\nvalue = 479.5"] ;
1100 -> 1101 ;
1102 [label="squared_error = 0.0\nsamples = 1\nvalue = 482.0"] ;
1101 -> 1102 ;
1103 [label="squared_error = 0.0\nsamples = 1\nvalue = 477.0"] ;
1101 -> 1103 ;
1104 [label="squared_error = 0.0\nsamples = 1\nvalue = 508.0"] ;
1100 -> 1104 ;
1105 [label="Unnamed: 0 <= 27914.5\nsquared_error = 5543.0\nsamples = 177\nvalue = 536.8"] ;
885 -> 1105 ;
1106 [label="Unnamed: 0 <= 16876.0\nsquared_error = 5352.9\nsamples = 85\nvalue = 575.9"] ;
1105 -> 1106 ;
1107 [label="Unnamed: 0 <= 224.5\nsquared_error = 5105.4\nsamples = 51\nvalue = 540.7"] ;
1106 -> 1107 ;
1108 [label="clarity <= 4.5\nsquared_error = 616.6\nsamples = 4\nvalue = 383.4"] ;
1107 -> 1108 ;
1109 [label="carat <= 0.3\nsquared_error = 0.9\nsamples = 2\nvalue = 403.7"] ;
1108 -> 1109 ;
1110 [label="squared_error = 0.0\nsamples = 1\nvalue = 405.0"] ;
1109 -> 1110 ;
1111 [label="squared_error = 0.0\nsamples = 1\nvalue = 403.0"] ;
1109 -> 1111 ;
1112 [label="squared_error = 0.0\nsamples = 2\nvalue = 353.0"] ;
1108 -> 1112 ;
1113 [label="Unnamed: 0 <= 16198.5\nsquared_error = 3761.6\nsamples = 47\nvalue = 550.4"] ;
1107 -> 1113 ;
1114 [label="clarity <= 4.5\nsquared_error = 2828.2\nsamples = 44\nvalue = 558.9"] ;
1113 -> 1114 ;
1115 [label="z <= 2.8\nsquared_error = 5996.8\nsamples = 11\nvalue = 519.2"] ;
1114 -> 1115 ;
1116 [label="Unnamed: 0 <= 2056.0\nsquared_error = 2326.7\nsamples = 4\nvalue = 430.2"] ;
1115 -> 1116 ;
1117 [label="squared_error = 0.0\nsamples = 1\nvalue = 557.0"] ;
1116 -> 1117 ;
1118 [label="color <= 3.5\nsquared_error = 36.1\nsamples = 3\nvalue = 412.1"] ;
1116 -> 1118 ;
1119 [label="depth <= 60.2\nsquared_error = 2.0\nsamples = 2\nvalue = 419.0"] ;
1118 -> 1119 ;
1120 [label="squared_error = 0.0\nsamples = 1\nvalue = 417.0"] ;
1119 -> 1120 ;
1121 [label="squared_error = 0.0\nsamples = 1\nvalue = 420.0"] ;
1119 -> 1121 ;
1122 [label="squared_error = 0.0\nsamples = 1\nvalue = 407.0"] ;
1118 -> 1122 ;
1123 [label="Unnamed: 0 <= 11722.0\nsquared_error = 391.8\nsamples = 7\nvalue = 573.9"] ;
1115 -> 1123 ;
1124 [label="Unnamed: 0 <= 4056.0\nsquared_error = 56.4\nsamples = 6\nvalue = 563.7"] ;
1123 -> 1124 ;
1125 [label="z <= 2.8\nsquared_error = 13.0\nsamples = 4\nvalue = 560.4"] ;
1124 -> 1125 ;
1126 [label="squared_error = 0.0\nsamples = 1\nvalue = 557.0"] ;
1125 -> 1126 ;
1127 [label="y <= 4.6\nsquared_error = 3.2\nsamples = 3\nvalue = 563.8"] ;
1125 -> 1127 ;
1128 [label="carat <= 0.4\nsquared_error = 0.2\nsamples = 2\nvalue = 565.5"] ;
1127 -> 1128 ;
1129 [label="squared_error = 0.0\nsamples = 1\nvalue = 565.0"] ;
1128 -> 1129 ;
1130 [label="squared_error = 0.0\nsamples = 1\nvalue = 566.0"] ;
1128 -> 1130 ;
1131 [label="squared_error = 0.0\nsamples = 1\nvalue = 562.0"] ;
1127 -> 1131 ;
1132 [label="z <= 2.8\nsquared_error = 9.0\nsamples = 2\nvalue = 577.0"] ;
1124 -> 1132 ;
1133 [label="squared_error = 0.0\nsamples = 1\nvalue = 574.0"] ;
1132 -> 1133 ;
1134 [label="squared_error = 0.0\nsamples = 1\nvalue = 580.0"] ;
1132 -> 1134 ;
1135 [label="squared_error = 0.0\nsamples = 1\nvalue = 608.0"] ;
1123 -> 1135 ;
1136 [label="Unnamed: 0 <= 7708.5\nsquared_error = 786.1\nsamples = 33\nvalue = 574.1"] ;
1114 -> 1136 ;
1137 [label="Unnamed: 0 <= 6044.0\nsquared_error = 773.9\nsamples = 20\nvalue = 560.8"] ;
1136 -> 1137 ;
1138 [label="Unnamed: 0 <= 3388.0\nsquared_error = 77.7\nsamples = 19\nvalue = 565.4"] ;
1137 -> 1138 ;
1139 [label="Unnamed: 0 <= 1895.5\nsquared_error = 11.3\nsamples = 9\nvalue = 556.1"] ;
1138 -> 1139 ;
1140 [label="Unnamed: 0 <= 560.5\nsquared_error = 2.1\nsamples = 8\nvalue = 554.9"] ;
1139 -> 1140 ;
1141 [label="squared_error = 0.0\nsamples = 5\nvalue = 554.0"] ;
1140 -> 1141 ;
1142 [label="x <= 4.5\nsquared_error = 0.5\nsamples = 3\nvalue = 557.0"] ;
1140 -> 1142 ;
1143 [label="squared_error = 0.0\nsamples = 1\nvalue = 558.0"] ;
1142 -> 1143 ;
1144 [label="x <= 4.6\nsquared_error = 0.2\nsamples = 2\nvalue = 556.7"] ;
1142 -> 1144 ;
1145 [label="squared_error = 0.0\nsamples = 1\nvalue = 557.0"] ;
1144 -> 1145 ;
1146 [label="squared_error = 0.0\nsamples = 1\nvalue = 556.0"] ;
1144 -> 1146 ;
1147 [label="squared_error = 0.0\nsamples = 1\nvalue = 564.0"] ;
1139 -> 1147 ;
1148 [label="Unnamed: 0 <= 4886.0\nsquared_error = 1.1\nsamples = 10\nvalue = 573.2"] ;
1138 -> 1148 ;
1149 [label="color <= 3.0\nsquared_error = 0.2\nsamples = 3\nvalue = 571.6"] ;
1148 -> 1149 ;
1150 [label="squared_error = 0.0\nsamples = 2\nvalue = 572.0"] ;
1149 -> 1150 ;
1151 [label="squared_error = 0.0\nsamples = 1\nvalue = 571.0"] ;
1149 -> 1151 ;
